Language model created by QuickLM on Sun May  1 16:15:38 EDT 2016
Copyright (c) 1996-2010 Carnegie Mellon University and Alexander I. Rudnicky

The model is in standard ARPA format, designed by Doug Paul while he was at MITRE.

The code that was used to produce this language model is available in Open Source.
Please visit http://www.speech.cs.cmu.edu/tools/ for more information

The (fixed) discount mass is 0.5. The backoffs are computed using the ratio method.
This model based on a corpus of 36 sentences and 38 words

\data\
ngram 1=38
ngram 2=72
ngram 3=36

\1-grams:
-0.7782 </s> -0.3010
-0.7782 <s> -0.2218
-2.3345 ABERRANT -0.2218
-2.3345 ABSTRACTED -0.2218
-2.3345 ATTEMPT -0.2218
-2.3345 BONE -0.2218
-2.3345 COIL -0.2218
-2.3345 COMPUTER -0.2218
-2.3345 DOUBT -0.2218
-2.3345 EARTH -0.2218
-2.3345 EFFECT -0.2218
-2.3345 ENGINE -0.2218
-2.3345 FLASHY -0.2218
-2.3345 FLY -0.2218
-2.3345 GRANDFATHER -0.2218
-2.3345 HEARTBREAKING -0.2218
-2.3345 HOMER -0.2218
-2.3345 JARVIS -0.2218
-2.3345 KEY -0.2218
-2.3345 LIGHT -0.2218
-2.3345 LUNCH -0.2218
-2.3345 MINION -0.2218
-2.3345 MUSHY -0.2218
-2.3345 OUTSTANDING -0.2218
-2.3345 POLISH -0.2218
-2.3345 POLITICAL -0.2218
-2.3345 PROGRAM -0.2218
-2.3345 QUIZZICAL -0.2218
-2.3345 RECESS -0.2218
-2.3345 RUDE -0.2218
-2.3345 SCRAWNY -0.2218
-2.3345 SELECTIVE -0.2218
-2.3345 SHIVER -0.2218
-2.3345 SINK -0.2218
-2.3345 STAMP -0.2218
-2.3345 STORY -0.2218
-2.3345 THOUGHTFUL -0.2218
-2.3345 TWIST -0.2218

\2-grams:
-1.8573 <s> ABERRANT 0.0000
-1.8573 <s> ABSTRACTED 0.0000
-1.8573 <s> ATTEMPT 0.0000
-1.8573 <s> BONE 0.0000
-1.8573 <s> COIL 0.0000
-1.8573 <s> COMPUTER 0.0000
-1.8573 <s> DOUBT 0.0000
-1.8573 <s> EARTH 0.0000
-1.8573 <s> EFFECT 0.0000
-1.8573 <s> ENGINE 0.0000
-1.8573 <s> FLASHY 0.0000
-1.8573 <s> FLY 0.0000
-1.8573 <s> GRANDFATHER 0.0000
-1.8573 <s> HEARTBREAKING 0.0000
-1.8573 <s> HOMER 0.0000
-1.8573 <s> JARVIS 0.0000
-1.8573 <s> KEY 0.0000
-1.8573 <s> LIGHT 0.0000
-1.8573 <s> LUNCH 0.0000
-1.8573 <s> MINION 0.0000
-1.8573 <s> MUSHY 0.0000
-1.8573 <s> OUTSTANDING 0.0000
-1.8573 <s> POLISH 0.0000
-1.8573 <s> POLITICAL 0.0000
-1.8573 <s> PROGRAM 0.0000
-1.8573 <s> QUIZZICAL 0.0000
-1.8573 <s> RECESS 0.0000
-1.8573 <s> RUDE 0.0000
-1.8573 <s> SCRAWNY 0.0000
-1.8573 <s> SELECTIVE 0.0000
-1.8573 <s> SHIVER 0.0000
-1.8573 <s> SINK 0.0000
-1.8573 <s> STAMP 0.0000
-1.8573 <s> STORY 0.0000
-1.8573 <s> THOUGHTFUL 0.0000
-1.8573 <s> TWIST 0.0000
-0.3010 ABERRANT </s> -0.3010
-0.3010 ABSTRACTED </s> -0.3010
-0.3010 ATTEMPT </s> -0.3010
-0.3010 BONE </s> -0.3010
-0.3010 COIL </s> -0.3010
-0.3010 COMPUTER </s> -0.3010
-0.3010 DOUBT </s> -0.3010
-0.3010 EARTH </s> -0.3010
-0.3010 EFFECT </s> -0.3010
-0.3010 ENGINE </s> -0.3010
-0.3010 FLASHY </s> -0.3010
-0.3010 FLY </s> -0.3010
-0.3010 GRANDFATHER </s> -0.3010
-0.3010 HEARTBREAKING </s> -0.3010
-0.3010 HOMER </s> -0.3010
-0.3010 JARVIS </s> -0.3010
-0.3010 KEY </s> -0.3010
-0.3010 LIGHT </s> -0.3010
-0.3010 LUNCH </s> -0.3010
-0.3010 MINION </s> -0.3010
-0.3010 MUSHY </s> -0.3010
-0.3010 OUTSTANDING </s> -0.3010
-0.3010 POLISH </s> -0.3010
-0.3010 POLITICAL </s> -0.3010
-0.3010 PROGRAM </s> -0.3010
-0.3010 QUIZZICAL </s> -0.3010
-0.3010 RECESS </s> -0.3010
-0.3010 RUDE </s> -0.3010
-0.3010 SCRAWNY </s> -0.3010
-0.3010 SELECTIVE </s> -0.3010
-0.3010 SHIVER </s> -0.3010
-0.3010 SINK </s> -0.3010
-0.3010 STAMP </s> -0.3010
-0.3010 STORY </s> -0.3010
-0.3010 THOUGHTFUL </s> -0.3010
-0.3010 TWIST </s> -0.3010

\3-grams:
-0.3010 <s> ABERRANT </s>
-0.3010 <s> ABSTRACTED </s>
-0.3010 <s> ATTEMPT </s>
-0.3010 <s> BONE </s>
-0.3010 <s> COIL </s>
-0.3010 <s> COMPUTER </s>
-0.3010 <s> DOUBT </s>
-0.3010 <s> EARTH </s>
-0.3010 <s> EFFECT </s>
-0.3010 <s> ENGINE </s>
-0.3010 <s> FLASHY </s>
-0.3010 <s> FLY </s>
-0.3010 <s> GRANDFATHER </s>
-0.3010 <s> HEARTBREAKING </s>
-0.3010 <s> HOMER </s>
-0.3010 <s> JARVIS </s>
-0.3010 <s> KEY </s>
-0.3010 <s> LIGHT </s>
-0.3010 <s> LUNCH </s>
-0.3010 <s> MINION </s>
-0.3010 <s> MUSHY </s>
-0.3010 <s> OUTSTANDING </s>
-0.3010 <s> POLISH </s>
-0.3010 <s> POLITICAL </s>
-0.3010 <s> PROGRAM </s>
-0.3010 <s> QUIZZICAL </s>
-0.3010 <s> RECESS </s>
-0.3010 <s> RUDE </s>
-0.3010 <s> SCRAWNY </s>
-0.3010 <s> SELECTIVE </s>
-0.3010 <s> SHIVER </s>
-0.3010 <s> SINK </s>
-0.3010 <s> STAMP </s>
-0.3010 <s> STORY </s>
-0.3010 <s> THOUGHTFUL </s>
-0.3010 <s> TWIST </s>

\end\
