Language model created by QuickLM on Mon Apr 25 14:35:44 EDT 2016
Copyright (c) 1996-2010 Carnegie Mellon University and Alexander I. Rudnicky

The model is in standard ARPA format, designed by Doug Paul while he was at MITRE.

The code that was used to produce this language model is available in Open Source.
Please visit http://www.speech.cs.cmu.edu/tools/ for more information

The (fixed) discount mass is 0.5. The backoffs are computed using the ratio method.
This model based on a corpus of 1001 sentences and 975 words

\data\
ngram 1=975
ngram 2=1946
ngram 3=973

\1-grams:
-0.7782 </s> -0.3010
-0.7782 <s> -0.2218
-3.7786 ABANDONED -0.2218
-3.7786 ABERRANT -0.2218
-3.7786 ABHORRENT -0.2218
-3.7786 ABLE -0.2218
-3.7786 ABOUNDING -0.2218
-3.7786 ABSORBED -0.2218
-3.7786 ABSORBING -0.2218
-3.7786 ABSTRACTED -0.2218
-3.7786 ABSURD -0.2218
-3.7786 ABUNDANT -0.2218
-3.7786 ACCEPTABLE -0.2218
-3.7786 ACCURATE -0.2218
-3.7786 ACID -0.2218
-3.7786 ACOUSTIC -0.2218
-3.7786 ACRID -0.2218
-3.7786 ADAMANT -0.2218
-3.7786 ADDITION -0.2218
-3.7786 ADHESIVE -0.2218
-3.7786 ADJUSTMENT -0.2218
-3.7786 ADMIRE -0.2218
-3.7786 ADMIT -0.2218
-3.7786 ADVERTISEMENT -0.2218
-3.7786 ADVISE -0.2218
-3.7786 AFFORD -0.2218
-3.7786 AFTERMATH -0.2218
-3.7786 AGONIZING -0.2218
-3.7786 AHEAD -0.2218
-3.7786 AIRPLANE -0.2218
-3.7786 AJAR -0.2218
-3.7786 ALERT -0.2218
-3.7786 ALIVE -0.2218
-3.7786 ALLOW -0.2218
-3.7786 ALOOF -0.2218
-3.7786 AMAZING -0.2218
-3.7786 AMBIGUOUS -0.2218
-3.7786 AMBITIOUS -0.2218
-3.7786 AMUCK -0.2218
-3.7786 AMUSE -0.2218
-3.7786 AMUSED -0.2218
-3.7786 ANGER -0.2218
-3.7786 ANGRY -0.2218
-3.7786 ANIMAL -0.2218
-3.7786 ANIMATED -0.2218
-3.7786 ANNOY -0.2218
-3.7786 ANNOYING -0.2218
-3.7786 APATHETIC -0.2218
-3.7786 APOLOGISE -0.2218
-3.7786 APPAREL -0.2218
-3.7786 APPRECIATE -0.2218
-3.7786 ARGUMENT -0.2218
-3.7786 ARM -0.2218
-3.7786 ARMY -0.2218
-3.7786 AROMATIC -0.2218
-3.7786 ARRIVE -0.2218
-3.7786 ART -0.2218
-3.7786 ASK -0.2218
-3.7786 ASSORTED -0.2218
-3.7786 ASTONISHING -0.2218
-3.7786 ATTACH -0.2218
-3.7786 ATTACK -0.2218
-3.7786 ATTEND -0.2218
-3.7786 ATTRACT -0.2218
-3.7786 AUTOMATIC -0.2218
-3.7786 AVOID -0.2218
-3.7786 AXIOMATIC -0.2218
-3.7786 BABY -0.2218
-3.7786 BACK -0.2218
-3.7786 BAD -0.2218
-3.7786 BAIT -0.2218
-3.7786 BAKE -0.2218
-3.7786 BALANCE -0.2218
-3.7786 BANG -0.2218
-3.7786 BASHFUL -0.2218
-3.7786 BASIN -0.2218
-3.7786 BASKET -0.2218
-3.7786 BASKETBALL -0.2218
-3.7786 BATTLE -0.2218
-3.7786 BAWDY -0.2218
-3.7786 BEAUTIFUL -0.2218
-3.7786 BED -0.2218
-3.7786 BEDS -0.2218
-3.7786 BEEF -0.2218
-3.7786 BEFITTING -0.2218
-3.7786 BEG -0.2218
-3.7786 BELL -0.2218
-3.7786 BELLIGERENT -0.2218
-3.7786 BELLS -0.2218
-3.7786 BELONG -0.2218
-3.7786 BERSERK -0.2218
-3.7786 BETTER -0.2218
-3.7786 BIRTHDAY -0.2218
-3.7786 BITE-SIZED -0.2218
-3.7786 BLACK -0.2218
-3.7786 BLADE -0.2218
-3.7786 BLEACH -0.2218
-3.7786 BLESS -0.2218
-3.7786 BLOODY -0.2218
-3.7786 BLUSHING -0.2218
-3.7786 BOIL -0.2218
-3.7786 BOLT -0.2218
-3.7786 BOMB -0.2218
-3.7786 BOOK -0.2218
-3.7786 BOORISH -0.2218
-3.7786 BOOT -0.2218
-3.7786 BORED -0.2218
-3.7786 BORING -0.2218
-3.7786 BOTTLE -0.2218
-3.7786 BOUNCY -0.2218
-3.7786 BOUNDARY -0.2218
-3.7786 BOX -0.2218
-3.7786 BRANCH -0.2218
-3.7786 BRASH -0.2218
-3.7786 BRASS -0.2218
-3.7786 BREATH -0.2218
-3.7786 BRIGHT -0.2218
-3.7786 BROAD -0.2218
-3.7786 BROKEN -0.2218
-3.7786 BUCKET -0.2218
-3.7786 BUILDING -0.2218
-3.7786 BURST -0.2218
-3.7786 BUTTER -0.2218
-3.7786 CABLE -0.2218
-3.7786 CALCULATE -0.2218
-3.7786 CALCULATING -0.2218
-3.7786 CALL -0.2218
-3.7786 CALLOUS -0.2218
-3.7786 CAMERA -0.2218
-3.7786 CAMP -0.2218
-3.7786 CANVAS -0.2218
-3.7786 CAP -0.2218
-3.7786 CAPABLE -0.2218
-3.7786 CAPRICIOUS -0.2218
-3.7786 CAR -0.2218
-3.7786 CARD -0.2218
-3.4776 CARE -0.2218
-3.7786 CARRIAGE -0.2218
-3.7786 CARRY -0.2218
-3.7786 CARS -0.2218
-3.7786 CARVE -0.2218
-3.7786 CATS -0.2218
-3.7786 CELLAR -0.2218
-3.7786 CERTAIN -0.2218
-3.7786 CHARMING -0.2218
-3.7786 CHEAP -0.2218
-3.7786 CHEESE -0.2218
-3.7786 CHERRIES -0.2218
-3.7786 CHERRY -0.2218
-3.7786 CHESS -0.2218
-3.7786 CHEW -0.2218
-3.7786 CHICKENS -0.2218
-3.7786 CHILDLIKE -0.2218
-3.7786 CHILDREN -0.2218
-3.7786 CHIN -0.2218
-3.7786 CHIVALROUS -0.2218
-3.7786 CHUBBY -0.2218
-3.7786 CLAIM -0.2218
-3.7786 CLASS -0.2218
-3.4776 CLEAN -0.2218
-3.7786 CLEAR -0.2218
-3.7786 CLEVER -0.2218
-3.7786 CLOSED -0.2218
-3.7786 CLOTH -0.2218
-3.7786 CLOUDY -0.2218
-3.7786 COBWEB -0.2218
-3.7786 COIL -0.2218
-3.7786 COLOR -0.2218
-3.7786 COMB -0.2218
-3.7786 COMBATIVE -0.2218
-3.7786 COMMAND -0.2218
-3.7786 COMPANY -0.2218
-3.7786 COMPETITION -0.2218
-3.7786 CONCENTRATE -0.2218
-3.7786 CONFESS -0.2218
-3.7786 CONSCIOUS -0.2218
-3.7786 CONSIDER -0.2218
-3.7786 CONSIST -0.2218
-3.7786 COOING -0.2218
-3.7786 COOPERATIVE -0.2218
-3.7786 COPY -0.2218
-3.7786 CORN -0.2218
-3.7786 COUGH -0.2218
-3.7786 COVER -0.2218
-3.7786 COW -0.2218
-3.7786 COWARDLY -0.2218
-3.4776 CRACK -0.2218
-3.7786 CRAYON -0.2218
-3.7786 CRAZY -0.2218
-3.7786 CREAM -0.2218
-3.7786 CREATOR -0.2218
-3.7786 CREATURE -0.2218
-3.7786 CREEPY -0.2218
-3.7786 CRIB -0.2218
-3.7786 CROW -0.2218
-3.7786 CROWD -0.2218
-3.7786 CRUSH -0.2218
-3.7786 CRY -0.2218
-3.7786 CUB -0.2218
-3.7786 CURIOUS -0.2218
-3.7786 CURL -0.2218
-3.7786 CURRENT -0.2218
-3.7786 CUSHION -0.2218
-3.7786 CUTE -0.2218
-3.7786 DAMAGE -0.2218
-3.7786 DAMAGING -0.2218
-3.7786 DAUGHTER -0.2218
-3.7786 DAY -0.2218
-3.7786 DAZZLING -0.2218
-3.7786 DEAD -0.2218
-3.7786 DEADPAN -0.2218
-3.7786 DEATH -0.2218
-3.7786 DECAY -0.2218
-3.7786 DECISIVE -0.2218
-3.7786 DECORATE -0.2218
-3.7786 DEFEATED -0.2218
-3.7786 DELAY -0.2218
-3.7786 DELICATE -0.2218
-3.7786 DELICIOUS -0.2218
-3.7786 DELIGHT -0.2218
-3.7786 DELIRIOUS -0.2218
-3.7786 DELIVER -0.2218
-3.7786 DEPENDENT -0.2218
-3.7786 DESCRIPTIVE -0.2218
-3.7786 DESERTED -0.2218
-3.7786 DESERVE -0.2218
-3.7786 DESIRE -0.2218
-3.7786 DESK -0.2218
-3.7786 DESTROY -0.2218
-3.7786 DESTRUCTION -0.2218
-3.7786 DETAIL -0.2218
-3.7786 DETAILED -0.2218
-3.7786 DETECT -0.2218
-3.7786 DEVILISH -0.2218
-3.7786 DIFFERENT -0.2218
-3.7786 DIFFICULT -0.2218
-3.7786 DILIGENT -0.2218
-3.7786 DIME -0.2218
-3.7786 DINOSAURS -0.2218
-3.7786 DIREFUL -0.2218
-3.7786 DISAGREEABLE -0.2218
-3.7786 DISAPPEAR -0.2218
-3.7786 DISARM -0.2218
-3.7786 DISASTROUS -0.2218
-3.7786 DISCOVER -0.2218
-3.7786 DISGUSTING -0.2218
-3.7786 DISLIKE -0.2218
-3.7786 DISTANCE -0.2218
-3.7786 DISTURBED -0.2218
-3.7786 DIZZY -0.2218
-3.7786 DOCK -0.2218
-3.7786 DONKEY -0.2218
-3.7786 DOOR -0.2218
-3.7786 DOUBLE -0.2218
-3.7786 DOUBT -0.2218
-3.7786 DRAB -0.2218
-3.7786 DRAG -0.2218
-3.7786 DRAWER -0.2218
-3.7786 DREAM -0.2218
-3.7786 DREARY -0.2218
-3.7786 DRIP -0.2218
-3.7786 DRUM -0.2218
-3.7786 DRUNK -0.2218
-3.7786 DULL -0.2218
-3.7786 DUST -0.2218
-3.7786 DUSTY -0.2218
-3.7786 DYSFUNCTIONAL -0.2218
-3.7786 EARN -0.2218
-3.7786 EARSPLITTING -0.2218
-3.7786 EARTH -0.2218
-3.7786 EARTHY -0.2218
-3.7786 EASY -0.2218
-3.7786 EATABLE -0.2218
-3.7786 EDUCATE -0.2218
-3.7786 EGGNOG -0.2218
-3.7786 EIGHT -0.2218
-3.7786 ELASTIC -0.2218
-3.7786 ELATED -0.2218
-3.7786 ELECTRIC -0.2218
-3.7786 ELEGANT -0.2218
-3.7786 ELFIN -0.2218
-3.7786 EMINENT -0.2218
-3.7786 EMPLOY -0.2218
-3.7786 EMPTY -0.2218
-3.7786 ENCHANTED -0.2218
-3.7786 END -0.2218
-3.7786 ENGINE -0.2218
-3.7786 ENORMOUS -0.2218
-3.7786 ENTER -0.2218
-3.7786 ENVIOUS -0.2218
-3.7786 EQUAL -0.2218
-3.7786 ERRATIC -0.2218
-3.7786 ERROR -0.2218
-3.7786 ETHEREAL -0.2218
-3.7786 EVEN -0.2218
-3.7786 EVENT -0.2218
-3.7786 EXCUSE -0.2218
-3.7786 EXPAND -0.2218
-3.7786 EXTRA-LARGE -0.2218
-3.7786 EXTRA-SMALL -0.2218
-3.7786 EYE -0.2218
-3.7786 EYES -0.2218
-3.7786 FACE -0.2218
-3.7786 FADED -0.2218
-3.7786 FAINT -0.2218
-3.7786 FAIRIES -0.2218
-3.7786 FALLACIOUS -0.2218
-3.7786 FAMILIAR -0.2218
-3.7786 FANATICAL -0.2218
-3.7786 FANCY -0.2218
-3.7786 FANG -0.2218
-3.7786 FAR-FLUNG -0.2218
-3.7786 FASCINATED -0.2218
-3.7786 FAST -0.2218
-3.7786 FASTEN -0.2218
-3.7786 FEELING -0.2218
-3.7786 FEIGNED -0.2218
-3.7786 FEMALE -0.2218
-3.7786 FESTIVE -0.2218
-3.7786 FETCH -0.2218
-3.7786 FIERCE -0.2218
-3.7786 FINGER -0.2218
-3.7786 FINICKY -0.2218
-3.7786 FIRST -0.2218
-3.7786 FISH -0.2218
-3.7786 FIT -0.2218
-3.7786 FIXED -0.2218
-3.7786 FLAGRANT -0.2218
-3.7786 FLAME -0.2218
-3.7786 FLASHY -0.2218
-3.7786 FLAT -0.2218
-3.7786 FLAVOR -0.2218
-3.7786 FLOOD -0.2218
-3.7786 FLOOR -0.2218
-3.7786 FLOW -0.2218
-3.7786 FOAMY -0.2218
-3.7786 FOLD -0.2218
-3.7786 FOOD -0.2218
-3.7786 FOOLISH -0.2218
-3.7786 FOOT -0.2218
-3.7786 FORGETFUL -0.2218
-3.7786 FORK -0.2218
-3.7786 FORM -0.2218
-3.7786 FOUR -0.2218
-3.7786 FOWL -0.2218
-3.7786 FRAME -0.2218
-3.7786 FREE -0.2218
-3.7786 FREEZING -0.2218
-3.7786 FREQUENT -0.2218
-3.7786 FRIGHTENED -0.2218
-3.7786 FROG -0.2218
-3.7786 FRONT -0.2218
-3.7786 FRUIT -0.2218
-3.7786 FRY -0.2218
-3.7786 FUMBLING -0.2218
-3.7786 FUNNY -0.2218
-3.7786 FURTIVE -0.2218
-3.7786 FUTURE -0.2218
-3.7786 FUTURISTIC -0.2218
-3.7786 GAMY -0.2218
-3.7786 GATE -0.2218
-3.7786 GATHER -0.2218
-3.7786 GAUDY -0.2218
-3.7786 GAZE -0.2218
-3.7786 GHOST -0.2218
-3.7786 GIANTS -0.2218
-3.7786 GIGANTIC -0.2218
-3.7786 GIRL -0.2218
-3.7786 GLASS -0.2218
-3.7786 GLEAMING -0.2218
-3.7786 GLISTENING -0.2218
-3.7786 GLOVE -0.2218
-3.7786 GLUE -0.2218
-3.7786 GOLD -0.2218
-3.7786 GOOFY -0.2218
-3.7786 GRACEFUL -0.2218
-3.7786 GRADE -0.2218
-3.7786 GRATE -0.2218
-3.7786 GREEN -0.2218
-3.7786 GREY -0.2218
-3.7786 GROAN -0.2218
-3.7786 GROOVY -0.2218
-3.7786 GROUND -0.2218
-3.7786 GROUP -0.2218
-3.7786 GRUESOME -0.2218
-3.7786 GUARANTEE -0.2218
-3.4776 GUIDE -0.2218
-3.7786 GUN -0.2218
-3.7786 HAIR -0.2218
-3.7786 HALLOWED -0.2218
-3.7786 HALTING -0.2218
-3.7786 HAMMER -0.2218
-3.7786 HAND -0.2218
-3.7786 HANDS -0.2218
-3.7786 HANDSOMELY -0.2218
-3.7786 HANDY -0.2218
-3.7786 HANG -0.2218
-3.7786 HANGING -0.2218
-3.7786 HAPPEN -0.2218
-3.7786 HARASS -0.2218
-3.7786 HARBOR -0.2218
-3.7786 HARD -0.2218
-3.7786 HARM -0.2218
-3.7786 HARMONIOUS -0.2218
-3.7786 HARSH -0.2218
-3.7786 HAT -0.2218
-3.7786 HATEFUL -0.2218
-3.7786 HAUNT -0.2218
-3.7786 HEAD -0.2218
-3.7786 HEAL -0.2218
-3.7786 HEALTHY -0.2218
-3.7786 HEAP -0.2218
-3.7786 HEARTBREAKING -0.2218
-3.7786 HEAT -0.2218
-3.7786 HELPFUL -0.2218
-3.7786 HIGH -0.2218
-3.7786 HIGH-PITCHED -0.2218
-3.7786 HIGHFALUTIN -0.2218
-3.7786 HILARIOUS -0.2218
-3.7786 HILL -0.2218
-3.7786 HOBBIES -0.2218
-3.7786 HOLE -0.2218
-3.7786 HOLISTIC -0.2218
-3.7786 HOMELY -0.2218
-3.7786 HONEY -0.2218
-3.7786 HONORABLE -0.2218
-3.4776 HOOK -0.2218
-3.7786 HOPE -0.2218
-3.7786 HORRIBLE -0.2218
-3.7786 HORSE -0.2218
-3.7786 HORSES -0.2218
-3.7786 HOSPITABLE -0.2218
-3.7786 HOUSE -0.2218
-3.7786 HOUSES -0.2218
-3.7786 HUMOR -0.2218
-3.7786 HUNGRY -0.2218
-3.7786 HURRY -0.2218
-3.7786 HYSTERICAL -0.2218
-3.7786 ICY -0.2218
-3.7786 IDEA -0.2218
-3.7786 IDENTIFY -0.2218
-3.7786 IGNORANT -0.2218
-3.7786 ILLUSTRIOUS -0.2218
-3.7786 IMPOLITE -0.2218
-3.7786 IMPORTANT -0.2218
-3.7786 IMPROVE -0.2218
-3.7786 IMPULSE -0.2218
-3.7786 INCOME -0.2218
-3.7786 INCOMPETENT -0.2218
-3.7786 INCREDIBLE -0.2218
-3.7786 INDUSTRIOUS -0.2218
-3.7786 INDUSTRY -0.2218
-3.7786 INFAMOUS -0.2218
-3.7786 INJURE -0.2218
-3.7786 INNATE -0.2218
-3.7786 INSECT -0.2218
-3.7786 INSIDIOUS -0.2218
-3.7786 INTEND -0.2218
-3.7786 INTERNAL -0.2218
-3.7786 INTRODUCE -0.2218
-3.7786 INVENTION -0.2218
-3.7786 INVITE -0.2218
-3.7786 IRRITATING -0.2218
-3.7786 ITCHY -0.2218
-3.7786 JAIL -0.2218
-3.7786 JAR -0.2218
-3.7786 JEALOUS -0.2218
-3.7786 JELLYFISH -0.2218
-3.7786 JITTERY -0.2218
-3.4776 JOIN -0.2218
-3.7786 JOKE -0.2218
-3.7786 JOLLY -0.2218
-3.4776 JUDGE -0.2218
-3.7786 JUDICIOUS -0.2218
-3.7786 JUMBLED -0.2218
-3.4776 JUMP -0.2218
-3.7786 KEEN -0.2218
-3.7786 KETTLE -0.2218
-3.7786 KICK -0.2218
-3.7786 KILL -0.2218
-3.7786 KITTY -0.2218
-3.7786 KNIFE -0.2218
-3.7786 KNIT -0.2218
-3.7786 KNOT -0.2218
-3.7786 KNOTTY -0.2218
-3.7786 KNOWING -0.2218
-3.7786 KNOWLEDGEABLE -0.2218
-3.7786 LAMP -0.2218
-3.7786 LANGUAGE -0.2218
-3.7786 LAST -0.2218
-3.7786 LAVISH -0.2218
-3.7786 LEATHER -0.2218
-3.7786 LEFT -0.2218
-3.7786 LETTER -0.2218
-3.7786 LEVEL -0.2218
-3.7786 LICENSE -0.2218
-3.7786 LIMPING -0.2218
-3.7786 LIP -0.2218
-3.7786 LIVELY -0.2218
-3.7786 LOAF -0.2218
-3.4776 LOCK -0.2218
-3.7786 LOCKET -0.2218
-3.7786 LONELY -0.2218
-3.4776 LOOK -0.2218
-3.7786 LOPSIDED -0.2218
-3.7786 LOSS -0.2218
-3.7786 LOUTISH -0.2218
-3.7786 LOVE -0.2218
-3.7786 LOVELY -0.2218
-3.7786 LOW -0.2218
-3.7786 LUXURIANT -0.2218
-3.7786 LYRICAL -0.2218
-3.7786 MADLY -0.2218
-3.7786 MAGENTA -0.2218
-3.7786 MAGNIFICENT -0.2218
-3.7786 MAID -0.2218
-3.7786 MAILBOX -0.2218
-3.7786 MAJESTIC -0.2218
-3.7786 MAMMOTH -0.2218
-3.7786 MANY -0.2218
-3.7786 MARBLE -0.2218
-3.7786 MARK -0.2218
-3.7786 MARKET -0.2218
-3.7786 MARRY -0.2218
-3.7786 MATCH -0.2218
-3.7786 MATE -0.2218
-3.7786 MATURE -0.2218
-3.7786 MEASURE -0.2218
-3.7786 MEDICAL -0.2218
-3.7786 MELTED -0.2218
-3.7786 MERCIFUL -0.2218
-3.7786 MESSY -0.2218
-3.7786 METAL -0.2218
-3.7786 MICE -0.2218
-3.7786 MIDDLE -0.2218
-3.7786 MILITARY -0.2218
-3.7786 MILK -0.2218
-3.7786 MINE -0.2218
-3.7786 MINION -0.2218
-3.7786 MINISTER -0.2218
-3.7786 MISCREANT -0.2218
-3.7786 MOANING -0.2218
-3.7786 MOM -0.2218
-3.7786 MONEY -0.2218
-3.7786 MOTHER -0.2218
-3.7786 MOUNTAIN -0.2218
-3.7786 MOVE -0.2218
-3.7786 MUNDANE -0.2218
-3.7786 MUSCLE -0.2218
-3.7786 NAIVE -0.2218
-3.7786 NAME -0.2218
-3.7786 NATION -0.2218
-3.7786 NEAT -0.2218
-3.7786 NEBULOUS -0.2218
-3.7786 NECESSARY -0.2218
-3.4776 NEED -0.2218
-3.7786 NEEDY -0.2218
-3.7786 NEIGHBORLY -0.2218
-3.7786 NEXT -0.2218
-3.7786 NIGHT -0.2218
-3.7786 NOISE -0.2218
-3.7786 NONDESCRIPT -0.2218
-3.7786 NONSTOP -0.2218
-3.7786 NORMAL -0.2218
-3.7786 NORTH -0.2218
-3.7786 NOSE -0.2218
-3.7786 NOSTALGIC -0.2218
-3.7786 NOTICE -0.2218
-3.7786 NUMBER -0.2218
-3.7786 NUMBERLESS -0.2218
-3.7786 NUTTY -0.2218
-3.7786 OBEDIENT -0.2218
-3.7786 OBNOXIOUS -0.2218
-3.7786 OBSERVANT -0.2218
-3.7786 OCEANIC -0.2218
-3.7786 OFFEND -0.2218
-3.7786 OFFER -0.2218
-3.7786 OLD-FASHIONED -0.2218
-3.7786 ONE -0.2218
-3.7786 OPEN -0.2218
-3.7786 OPTIMAL -0.2218
-3.7786 ORANGE -0.2218
-3.7786 ORANGES -0.2218
-3.7786 OVAL -0.2218
-3.7786 OVERFLOW -0.2218
-3.7786 OVERT -0.2218
-3.7786 OWE -0.2218
-3.7786 OWN -0.2218
-3.7786 PACK -0.2218
-3.7786 PAGE -0.2218
-3.7786 PAINFUL -0.2218
-3.7786 PAINSTAKING -0.2218
-3.7786 PALE -0.2218
-3.7786 PANCAKE -0.2218
-3.7786 PANORAMIC -0.2218
-3.7786 PARALLEL -0.2218
-3.7786 PARK -0.2218
-3.7786 PART -0.2218
-3.7786 PARTNER -0.2218
-3.7786 PASS -0.2218
-3.7786 PAST -0.2218
-3.7786 PEACE -0.2218
-3.7786 PEACEFUL -0.2218
-3.7786 PEDAL -0.2218
-3.7786 PERFECT -0.2218
-3.7786 PERIODIC -0.2218
-3.7786 PERSON -0.2218
-3.7786 PEST -0.2218
-3.7786 PET -0.2218
-3.4776 PETITE -0.2218
-3.7786 PETS -0.2218
-3.7786 PHONE -0.2218
-3.7786 PHYSICAL -0.2218
-3.7786 PIE -0.2218
-3.7786 PIG -0.2218
-3.7786 PINE -0.2218
-3.7786 PIZZAS -0.2218
-3.7786 PLAN -0.2218
-3.4776 PLANT -0.2218
-3.7786 PLANTS -0.2218
-3.7786 PLAUSIBLE -0.2218
-3.7786 PLAYGROUND -0.2218
-3.7786 PLOT -0.2218
-3.7786 POCKET -0.2218
-3.4776 POINT -0.2218
-3.7786 POISED -0.2218
-3.7786 POPCORN -0.2218
-3.7786 POSITION -0.2218
-3.7786 POST -0.2218
-3.7786 POT -0.2218
-3.7786 POUR -0.2218
-3.7786 POWDER -0.2218
-3.7786 PRECEDE -0.2218
-3.7786 PREPARE -0.2218
-3.7786 PRESENT -0.2218
-3.7786 PRESERVE -0.2218
-3.7786 PRETEND -0.2218
-3.7786 PREVENT -0.2218
-3.7786 PRODUCE -0.2218
-3.7786 PROGRAM -0.2218
-3.7786 PROPERTY -0.2218
-3.7786 PROTECT -0.2218
-3.7786 PUBLIC -0.2218
-3.7786 PUNCH -0.2218
-3.7786 PUNCTURE -0.2218
-3.7786 PUNISH -0.2218
-3.7786 PUNISHMENT -0.2218
-3.7786 PUNY -0.2218
-3.7786 PUSH -0.2218
-3.7786 PUSHY -0.2218
-3.7786 PUZZLED -0.2218
-3.7786 PUZZLING -0.2218
-3.7786 QUACK -0.2218
-3.7786 QUAINT -0.2218
-3.7786 QUARRELSOME -0.2218
-3.7786 QUARTER -0.2218
-3.7786 QUARTZ -0.2218
-3.7786 QUEEN -0.2218
-3.7786 QUEUE -0.2218
-3.7786 QUICKEST -0.2218
-3.7786 QUILT -0.2218
-3.7786 QUINCE -0.2218
-3.7786 QUIXOTIC -0.2218
-3.7786 QUIZZICAL -0.2218
-3.7786 RADIATE -0.2218
-3.7786 RAILWAY -0.2218
-3.4776 RAIN -0.2218
-3.7786 RAISE -0.2218
-3.7786 RAMBUNCTIOUS -0.2218
-3.7786 RAMPANT -0.2218
-3.7786 RARE -0.2218
-3.7786 RASPY -0.2218
-3.7786 RAT -0.2218
-3.7786 RATTY -0.2218
-3.7786 REAL -0.2218
-3.7786 RECEIVE -0.2218
-3.7786 RECEPTIVE -0.2218
-3.7786 RECESS -0.2218
-3.7786 RECONDITE -0.2218
-3.7786 RECORD -0.2218
-3.7786 REDUNDANT -0.2218
-3.7786 REFLECTIVE -0.2218
-3.7786 REGULAR -0.2218
-3.7786 RELAX -0.2218
-3.7786 RELEASE -0.2218
-3.7786 RELIEVED -0.2218
-3.7786 RELY -0.2218
-3.7786 REMARKABLE -0.2218
-3.7786 REMOVE -0.2218
-3.7786 REPEAT -0.2218
-3.7786 REPRESENTATIVE -0.2218
-3.7786 REPRODUCE -0.2218
-3.7786 REQUEST -0.2218
-3.7786 RESCUE -0.2218
-3.7786 RESPONSIBLE -0.2218
-3.7786 REST -0.2218
-3.7786 RETIRE -0.2218
-3.7786 RICE -0.2218
-3.7786 RIFLE -0.2218
-3.7786 RINGS -0.2218
-3.7786 RIPE -0.2218
-3.7786 RITZY -0.2218
-3.7786 ROASTED -0.2218
-3.7786 ROB -0.2218
-3.7786 ROCK -0.2218
-3.4776 ROLL -0.2218
-3.7786 ROMANTIC -0.2218
-3.7786 ROSE -0.2218
-3.7786 ROT -0.2218
-3.7786 ROYAL -0.2218
-3.7786 RUDE -0.2218
-3.7786 RULE -0.2218
-3.7786 SALTY -0.2218
-3.7786 SAME -0.2218
-3.7786 SAND -0.2218
-3.7786 SATISFY -0.2218
-3.7786 SATISFYING -0.2218
-3.7786 SAVE -0.2218
-3.7786 SAW -0.2218
-3.7786 SCARCE -0.2218
-3.7786 SCARECROW -0.2218
-3.7786 SCARED -0.2218
-3.7786 SCARF -0.2218
-3.7786 SCENT -0.2218
-3.7786 SCIENTIFIC -0.2218
-3.7786 SCISSORS -0.2218
-3.7786 SCREECHING -0.2218
-3.7786 SCRUB -0.2218
-3.7786 SEASHORE -0.2218
-3.7786 SEED -0.2218
-3.7786 SELECTIVE -0.2218
-3.7786 SELFISH -0.2218
-3.7786 SEPARATE -0.2218
-3.7786 SETTLE -0.2218
-3.7786 SHALLOW -0.2218
-3.7786 SHARP -0.2218
-3.7786 SHEET -0.2218
-3.7786 SHELF -0.2218
-3.7786 SHELTER -0.2218
-3.7786 SHIRT -0.2218
-3.7786 SHIVER -0.2218
-3.7786 SHOCK -0.2218
-3.7786 SHOP -0.2218
-3.7786 SHOW -0.2218
-3.7786 SHY -0.2218
-3.7786 SIGN -0.2218
-3.7786 SILENT -0.2218
-3.7786 SINK -0.2218
-3.7786 SKATE -0.2218
-3.7786 SKI -0.2218
-3.7786 SKIP -0.2218
-3.7786 SLEEP -0.2218
-3.7786 SLEET -0.2218
-3.7786 SLIM -0.2218
-3.7786 SLOPPY -0.2218
-3.7786 SLOW -0.2218
-3.7786 SMALL -0.2218
-3.4776 SMASH -0.2218
-3.4776 SMILE -0.2218
-3.7786 SMILING -0.2218
-3.7786 SMOGGY -0.2218
-3.7786 SMOKE -0.2218
-3.7786 SNAKE -0.2218
-3.7786 SNAKES -0.2218
-3.7786 SNATCH -0.2218
-3.7786 SNEEZE -0.2218
-3.7786 SNOBBISH -0.2218
-3.4776 SNOW -0.2218
-3.7786 SOCIETY -0.2218
-3.7786 SODA -0.2218
-3.7786 SOFA -0.2218
-3.7786 SOMBER -0.2218
-3.7786 SON -0.2218
-3.7786 SONGS -0.2218
-3.7786 SOOTHE -0.2218
-3.7786 SORE -0.2218
-3.7786 SORT -0.2218
-3.7786 SOUND -0.2218
-3.7786 SPADE -0.2218
-3.7786 SPARE -0.2218
-3.4776 SPARK -0.2218
-3.7786 SPARKLING -0.2218
-3.7786 SPECTACULAR -0.2218
-3.7786 SPIFFY -0.2218
-3.7786 SPIRITUAL -0.2218
-3.7786 SPITEFUL -0.2218
-3.7786 SPLENDID -0.2218
-3.7786 SPONGE -0.2218
-3.7786 SPOON -0.2218
-3.4776 SPOT -0.2218
-3.7786 SPOTTED -0.2218
-3.7786 SPRAY -0.2218
-3.7786 SPROUT -0.2218
-3.7786 SPY -0.2218
-3.7786 SQUARE -0.2218
-3.7786 SQUASH -0.2218
-3.7786 SQUEAL -0.2218
-3.7786 STAGE -0.2218
-3.7786 STAIN -0.2218
-3.7786 STAKING -0.2218
-3.7786 STALE -0.2218
-3.4776 STAMP -0.2218
-3.7786 STANDING -0.2218
-3.7786 STARE -0.2218
-3.7786 START -0.2218
-3.7786 STATION -0.2218
-3.7786 STEADFAST -0.2218
-3.7786 STEAM -0.2218
-3.7786 STEEP -0.2218
-3.7786 STEW -0.2218
-3.7786 STICK -0.2218
-3.7786 STIFF -0.2218
-3.7786 STIMULATING -0.2218
-3.7786 STIR -0.2218
-3.7786 STITCH -0.2218
-3.7786 STOMACH -0.2218
-3.7786 STOP -0.2218
-3.4776 STORE -0.2218
-3.7786 STOVE -0.2218
-3.7786 STRAIGHT -0.2218
-3.7786 STRANGE -0.2218
-3.7786 STRAP -0.2218
-3.7786 STRAW -0.2218
-3.7786 STRING -0.2218
-3.7786 STROKE -0.2218
-3.7786 STUFF -0.2218
-3.7786 STUPENDOUS -0.2218
-3.7786 SUBDUED -0.2218
-3.7786 SUBSEQUENT -0.2218
-3.7786 SUBSTANCE -0.2218
-3.7786 SUBSTANTIAL -0.2218
-3.7786 SUGAR -0.2218
-3.7786 SUGGEST -0.2218
-3.7786 SUGGESTION -0.2218
-3.7786 SUIT -0.2218
-3.7786 SULKY -0.2218
-3.7786 SUPER -0.2218
-3.7786 SUPERB -0.2218
-3.4776 SUPPORT -0.2218
-3.7786 SUSPEND -0.2218
-3.7786 SWEATER -0.2218
-3.7786 SWELTERING -0.2218
-3.7786 SWIFT -0.2218
-3.7786 SWIM -0.2218
-3.7786 SYNONYMOUS -0.2218
-3.7786 TACIT -0.2218
-3.7786 TAIL -0.2218
-3.7786 TALK -0.2218
-3.7786 TAN -0.2218
-3.7786 TAP -0.2218
-3.7786 TART -0.2218
-3.7786 TASTEFUL -0.2218
-3.7786 TASTY -0.2218
-3.7786 TEAM -0.2218
-3.7786 TEETH -0.2218
-3.7786 TELLING -0.2218
-3.7786 TEMPORARY -0.2218
-3.7786 TEMPT -0.2218
-3.7786 TENDENCY -0.2218
-3.7786 TENT -0.2218
-3.7786 TERRIBLE -0.2218
-3.7786 TERRIFIC -0.2218
-3.7786 TEST -0.2218
-3.7786 TEXTURE -0.2218
-3.7786 THEORY -0.2218
-3.7786 THERAPEUTIC -0.2218
-3.4776 THIRSTY -0.2218
-3.7786 THOUGHT -0.2218
-3.7786 THRILL -0.2218
-3.7786 THRONE -0.2218
-3.7786 TICKET -0.2218
-3.7786 TIE -0.2218
-3.7786 TIME -0.2218
-3.7786 TOE -0.2218
-3.7786 TOES -0.2218
-3.7786 TOOTHBRUSH -0.2218
-3.7786 TOOTHPASTE -0.2218
-3.7786 TOP -0.2218
-3.7786 TOUGH -0.2218
-3.7786 TOUR -0.2218
-3.7786 TOWN -0.2218
-3.7786 TRACE -0.2218
-3.7786 TRAIN -0.2218
-3.7786 TRANQUIL -0.2218
-3.7786 TRANSPORT -0.2218
-3.7786 TREES -0.2218
-3.7786 TREMBLE -0.2218
-3.7786 TROUSERS -0.2218
-3.7786 TUG -0.2218
-3.7786 TURKEY -0.2218
-3.4776 TURN -0.2218
-3.7786 TWO -0.2218
-3.7786 TYPICAL -0.2218
-3.7786 UNADVISED -0.2218
-3.7786 UNBIASED -0.2218
-3.7786 UNCLE -0.2218
-3.7786 UNCOVERED -0.2218
-3.7786 UNDERSTOOD -0.2218
-3.7786 UNEVEN -0.2218
-3.7786 UNHEALTHY -0.2218
-3.7786 UNIT -0.2218
-3.7786 UNITE -0.2218
-3.7786 UNKNOWN -0.2218
-3.7786 UNNATURAL -0.2218
-3.4776 UNTIDY -0.2218
-3.7786 UPPITY -0.2218
-3.7786 UPSET -0.2218
-3.7786 USE -0.2218
-3.7786 UTOPIAN -0.2218
-3.7786 UTTER -0.2218
-3.7786 UTTERMOST -0.2218
-3.7786 VAGABOND -0.2218
-3.7786 VAN -0.2218
-3.7786 VANISH -0.2218
-3.7786 VAST -0.2218
-3.7786 VEIL -0.2218
-3.7786 VENGEFUL -0.2218
-3.7786 VERDANT -0.2218
-3.7786 VIGOROUS -0.2218
-3.7786 VISITOR -0.2218
-3.7786 VIVACIOUS -0.2218
-3.7786 WACKY -0.2218
-3.7786 WAIL -0.2218
-3.7786 WAIT -0.2218
-3.7786 WALL -0.2218
-3.7786 WANDERING -0.2218
-3.7786 WANT -0.2218
-3.7786 WANTING -0.2218
-3.7786 WARY -0.2218
-3.7786 WASH -0.2218
-3.7786 WASTE -0.2218
-3.7786 WASTEFUL -0.2218
-3.7786 WAY -0.2218
-3.7786 WEAK -0.2218
-3.7786 WEATHER -0.2218
-3.7786 WEIGH -0.2218
-3.7786 WEIGHT -0.2218
-3.7786 WHEEL -0.2218
-3.4776 WHIP -0.2218
-3.7786 WHIRL -0.2218
-3.7786 WHISPER -0.2218
-3.7786 WHISPERING -0.2218
-3.7786 WHITE -0.2218
-3.7786 WIGGLY -0.2218
-3.7786 WIND -0.2218
-3.7786 WINDOW -0.2218
-3.7786 WING -0.2218
-3.7786 WIPE -0.2218
-3.7786 WIRE -0.2218
-3.7786 WISH -0.2218
-3.7786 WITTY -0.2218
-3.7786 WOEBEGONE -0.2218
-3.7786 WOMAN -0.2218
-3.7786 WONDER -0.2218
-3.7786 WONDERFUL -0.2218
-3.7786 WOOL -0.2218
-3.7786 WOOZY -0.2218
-3.7786 WORD -0.2218
-3.7786 WORM -0.2218
-3.7786 WORRY -0.2218
-3.7786 WORTHLESS -0.2218
-3.7786 WRECK -0.2218
-3.7786 WRENCH -0.2218
-3.7786 WRESTLE -0.2218
-3.7786 WRETCHED -0.2218
-3.7786 WRITING -0.2218
-3.7786 WRY -0.2218
-3.7786 YAM -0.2218
-3.7786 YARD -0.2218
-3.7786 YELLOW -0.2218
-3.7786 YOUNG -0.2218
-3.7786 ZEBRA -0.2218
-3.7786 ZIPPER -0.2218
-3.7786 ZIPPY -0.2218
-3.7786 ZOOM -0.2218

\2-grams:
-3.3015 <s> ABANDONED 0.0000
-3.3015 <s> ABERRANT 0.0000
-3.3015 <s> ABHORRENT 0.0000
-3.3015 <s> ABLE 0.0000
-3.3015 <s> ABOUNDING 0.0000
-3.3015 <s> ABSORBED 0.0000
-3.3015 <s> ABSORBING 0.0000
-3.3015 <s> ABSTRACTED 0.0000
-3.3015 <s> ABSURD 0.0000
-3.3015 <s> ABUNDANT 0.0000
-3.3015 <s> ACCEPTABLE 0.0000
-3.3015 <s> ACCURATE 0.0000
-3.3015 <s> ACID 0.0000
-3.3015 <s> ACOUSTIC 0.0000
-3.3015 <s> ACRID 0.0000
-3.3015 <s> ADAMANT 0.0000
-3.3015 <s> ADDITION 0.0000
-3.3015 <s> ADHESIVE 0.0000
-3.3015 <s> ADJUSTMENT 0.0000
-3.3015 <s> ADMIRE 0.0000
-3.3015 <s> ADMIT 0.0000
-3.3015 <s> ADVERTISEMENT 0.0000
-3.3015 <s> ADVISE 0.0000
-3.3015 <s> AFFORD 0.0000
-3.3015 <s> AFTERMATH 0.0000
-3.3015 <s> AGONIZING 0.0000
-3.3015 <s> AHEAD 0.0000
-3.3015 <s> AIRPLANE 0.0000
-3.3015 <s> AJAR 0.0000
-3.3015 <s> ALERT 0.0000
-3.3015 <s> ALIVE 0.0000
-3.3015 <s> ALLOW 0.0000
-3.3015 <s> ALOOF 0.0000
-3.3015 <s> AMAZING 0.0000
-3.3015 <s> AMBIGUOUS 0.0000
-3.3015 <s> AMBITIOUS 0.0000
-3.3015 <s> AMUCK 0.0000
-3.3015 <s> AMUSE 0.0000
-3.3015 <s> AMUSED 0.0000
-3.3015 <s> ANGER 0.0000
-3.3015 <s> ANGRY 0.0000
-3.3015 <s> ANIMAL 0.0000
-3.3015 <s> ANIMATED 0.0000
-3.3015 <s> ANNOY 0.0000
-3.3015 <s> ANNOYING 0.0000
-3.3015 <s> APATHETIC 0.0000
-3.3015 <s> APOLOGISE 0.0000
-3.3015 <s> APPAREL 0.0000
-3.3015 <s> APPRECIATE 0.0000
-3.3015 <s> ARGUMENT 0.0000
-3.3015 <s> ARM 0.0000
-3.3015 <s> ARMY 0.0000
-3.3015 <s> AROMATIC 0.0000
-3.3015 <s> ARRIVE 0.0000
-3.3015 <s> ART 0.0000
-3.3015 <s> ASK 0.0000
-3.3015 <s> ASSORTED 0.0000
-3.3015 <s> ASTONISHING 0.0000
-3.3015 <s> ATTACH 0.0000
-3.3015 <s> ATTACK 0.0000
-3.3015 <s> ATTEND 0.0000
-3.3015 <s> ATTRACT 0.0000
-3.3015 <s> AUTOMATIC 0.0000
-3.3015 <s> AVOID 0.0000
-3.3015 <s> AXIOMATIC 0.0000
-3.3015 <s> BABY 0.0000
-3.3015 <s> BACK 0.0000
-3.3015 <s> BAD 0.0000
-3.3015 <s> BAIT 0.0000
-3.3015 <s> BAKE 0.0000
-3.3015 <s> BALANCE 0.0000
-3.3015 <s> BANG 0.0000
-3.3015 <s> BASHFUL 0.0000
-3.3015 <s> BASIN 0.0000
-3.3015 <s> BASKET 0.0000
-3.3015 <s> BASKETBALL 0.0000
-3.3015 <s> BATTLE 0.0000
-3.3015 <s> BAWDY 0.0000
-3.3015 <s> BEAUTIFUL 0.0000
-3.3015 <s> BED 0.0000
-3.3015 <s> BEDS 0.0000
-3.3015 <s> BEEF 0.0000
-3.3015 <s> BEFITTING 0.0000
-3.3015 <s> BEG 0.0000
-3.3015 <s> BELL 0.0000
-3.3015 <s> BELLIGERENT 0.0000
-3.3015 <s> BELLS 0.0000
-3.3015 <s> BELONG 0.0000
-3.3015 <s> BERSERK 0.0000
-3.3015 <s> BETTER 0.0000
-3.3015 <s> BIRTHDAY 0.0000
-3.3015 <s> BITE-SIZED 0.0000
-3.3015 <s> BLACK 0.0000
-3.3015 <s> BLADE 0.0000
-3.3015 <s> BLEACH 0.0000
-3.3015 <s> BLESS 0.0000
-3.3015 <s> BLOODY 0.0000
-3.3015 <s> BLUSHING 0.0000
-3.3015 <s> BOIL 0.0000
-3.3015 <s> BOLT 0.0000
-3.3015 <s> BOMB 0.0000
-3.3015 <s> BOOK 0.0000
-3.3015 <s> BOORISH 0.0000
-3.3015 <s> BOOT 0.0000
-3.3015 <s> BORED 0.0000
-3.3015 <s> BORING 0.0000
-3.3015 <s> BOTTLE 0.0000
-3.3015 <s> BOUNCY 0.0000
-3.3015 <s> BOUNDARY 0.0000
-3.3015 <s> BOX 0.0000
-3.3015 <s> BRANCH 0.0000
-3.3015 <s> BRASH 0.0000
-3.3015 <s> BRASS 0.0000
-3.3015 <s> BREATH 0.0000
-3.3015 <s> BRIGHT 0.0000
-3.3015 <s> BROAD 0.0000
-3.3015 <s> BROKEN 0.0000
-3.3015 <s> BUCKET 0.0000
-3.3015 <s> BUILDING 0.0000
-3.3015 <s> BURST 0.0000
-3.3015 <s> BUTTER 0.0000
-3.3015 <s> CABLE 0.0000
-3.3015 <s> CALCULATE 0.0000
-3.3015 <s> CALCULATING 0.0000
-3.3015 <s> CALL 0.0000
-3.3015 <s> CALLOUS 0.0000
-3.3015 <s> CAMERA 0.0000
-3.3015 <s> CAMP 0.0000
-3.3015 <s> CANVAS 0.0000
-3.3015 <s> CAP 0.0000
-3.3015 <s> CAPABLE 0.0000
-3.3015 <s> CAPRICIOUS 0.0000
-3.3015 <s> CAR 0.0000
-3.3015 <s> CARD 0.0000
-3.0004 <s> CARE 0.0000
-3.3015 <s> CARRIAGE 0.0000
-3.3015 <s> CARRY 0.0000
-3.3015 <s> CARS 0.0000
-3.3015 <s> CARVE 0.0000
-3.3015 <s> CATS 0.0000
-3.3015 <s> CELLAR 0.0000
-3.3015 <s> CERTAIN 0.0000
-3.3015 <s> CHARMING 0.0000
-3.3015 <s> CHEAP 0.0000
-3.3015 <s> CHEESE 0.0000
-3.3015 <s> CHERRIES 0.0000
-3.3015 <s> CHERRY 0.0000
-3.3015 <s> CHESS 0.0000
-3.3015 <s> CHEW 0.0000
-3.3015 <s> CHICKENS 0.0000
-3.3015 <s> CHILDLIKE 0.0000
-3.3015 <s> CHILDREN 0.0000
-3.3015 <s> CHIN 0.0000
-3.3015 <s> CHIVALROUS 0.0000
-3.3015 <s> CHUBBY 0.0000
-3.3015 <s> CLAIM 0.0000
-3.3015 <s> CLASS 0.0000
-3.0004 <s> CLEAN 0.0000
-3.3015 <s> CLEAR 0.0000
-3.3015 <s> CLEVER 0.0000
-3.3015 <s> CLOSED 0.0000
-3.3015 <s> CLOTH 0.0000
-3.3015 <s> CLOUDY 0.0000
-3.3015 <s> COBWEB 0.0000
-3.3015 <s> COIL 0.0000
-3.3015 <s> COLOR 0.0000
-3.3015 <s> COMB 0.0000
-3.3015 <s> COMBATIVE 0.0000
-3.3015 <s> COMMAND 0.0000
-3.3015 <s> COMPANY 0.0000
-3.3015 <s> COMPETITION 0.0000
-3.3015 <s> CONCENTRATE 0.0000
-3.3015 <s> CONFESS 0.0000
-3.3015 <s> CONSCIOUS 0.0000
-3.3015 <s> CONSIDER 0.0000
-3.3015 <s> CONSIST 0.0000
-3.3015 <s> COOING 0.0000
-3.3015 <s> COOPERATIVE 0.0000
-3.3015 <s> COPY 0.0000
-3.3015 <s> CORN 0.0000
-3.3015 <s> COUGH 0.0000
-3.3015 <s> COVER 0.0000
-3.3015 <s> COW 0.0000
-3.3015 <s> COWARDLY 0.0000
-3.0004 <s> CRACK 0.0000
-3.3015 <s> CRAYON 0.0000
-3.3015 <s> CRAZY 0.0000
-3.3015 <s> CREAM 0.0000
-3.3015 <s> CREATOR 0.0000
-3.3015 <s> CREATURE 0.0000
-3.3015 <s> CREEPY 0.0000
-3.3015 <s> CRIB 0.0000
-3.3015 <s> CROW 0.0000
-3.3015 <s> CROWD 0.0000
-3.3015 <s> CRUSH 0.0000
-3.3015 <s> CRY 0.0000
-3.3015 <s> CUB 0.0000
-3.3015 <s> CURIOUS 0.0000
-3.3015 <s> CURL 0.0000
-3.3015 <s> CURRENT 0.0000
-3.3015 <s> CUSHION 0.0000
-3.3015 <s> CUTE 0.0000
-3.3015 <s> DAMAGE 0.0000
-3.3015 <s> DAMAGING 0.0000
-3.3015 <s> DAUGHTER 0.0000
-3.3015 <s> DAY 0.0000
-3.3015 <s> DAZZLING 0.0000
-3.3015 <s> DEAD 0.0000
-3.3015 <s> DEADPAN 0.0000
-3.3015 <s> DEATH 0.0000
-3.3015 <s> DECAY 0.0000
-3.3015 <s> DECISIVE 0.0000
-3.3015 <s> DECORATE 0.0000
-3.3015 <s> DEFEATED 0.0000
-3.3015 <s> DELAY 0.0000
-3.3015 <s> DELICATE 0.0000
-3.3015 <s> DELICIOUS 0.0000
-3.3015 <s> DELIGHT 0.0000
-3.3015 <s> DELIRIOUS 0.0000
-3.3015 <s> DELIVER 0.0000
-3.3015 <s> DEPENDENT 0.0000
-3.3015 <s> DESCRIPTIVE 0.0000
-3.3015 <s> DESERTED 0.0000
-3.3015 <s> DESERVE 0.0000
-3.3015 <s> DESIRE 0.0000
-3.3015 <s> DESK 0.0000
-3.3015 <s> DESTROY 0.0000
-3.3015 <s> DESTRUCTION 0.0000
-3.3015 <s> DETAIL 0.0000
-3.3015 <s> DETAILED 0.0000
-3.3015 <s> DETECT 0.0000
-3.3015 <s> DEVILISH 0.0000
-3.3015 <s> DIFFERENT 0.0000
-3.3015 <s> DIFFICULT 0.0000
-3.3015 <s> DILIGENT 0.0000
-3.3015 <s> DIME 0.0000
-3.3015 <s> DINOSAURS 0.0000
-3.3015 <s> DIREFUL 0.0000
-3.3015 <s> DISAGREEABLE 0.0000
-3.3015 <s> DISAPPEAR 0.0000
-3.3015 <s> DISARM 0.0000
-3.3015 <s> DISASTROUS 0.0000
-3.3015 <s> DISCOVER 0.0000
-3.3015 <s> DISGUSTING 0.0000
-3.3015 <s> DISLIKE 0.0000
-3.3015 <s> DISTANCE 0.0000
-3.3015 <s> DISTURBED 0.0000
-3.3015 <s> DIZZY 0.0000
-3.3015 <s> DOCK 0.0000
-3.3015 <s> DONKEY 0.0000
-3.3015 <s> DOOR 0.0000
-3.3015 <s> DOUBLE 0.0000
-3.3015 <s> DOUBT 0.0000
-3.3015 <s> DRAB 0.0000
-3.3015 <s> DRAG 0.0000
-3.3015 <s> DRAWER 0.0000
-3.3015 <s> DREAM 0.0000
-3.3015 <s> DREARY 0.0000
-3.3015 <s> DRIP 0.0000
-3.3015 <s> DRUM 0.0000
-3.3015 <s> DRUNK 0.0000
-3.3015 <s> DULL 0.0000
-3.3015 <s> DUST 0.0000
-3.3015 <s> DUSTY 0.0000
-3.3015 <s> DYSFUNCTIONAL 0.0000
-3.3015 <s> EARN 0.0000
-3.3015 <s> EARSPLITTING 0.0000
-3.3015 <s> EARTH 0.0000
-3.3015 <s> EARTHY 0.0000
-3.3015 <s> EASY 0.0000
-3.3015 <s> EATABLE 0.0000
-3.3015 <s> EDUCATE 0.0000
-3.3015 <s> EGGNOG 0.0000
-3.3015 <s> EIGHT 0.0000
-3.3015 <s> ELASTIC 0.0000
-3.3015 <s> ELATED 0.0000
-3.3015 <s> ELECTRIC 0.0000
-3.3015 <s> ELEGANT 0.0000
-3.3015 <s> ELFIN 0.0000
-3.3015 <s> EMINENT 0.0000
-3.3015 <s> EMPLOY 0.0000
-3.3015 <s> EMPTY 0.0000
-3.3015 <s> ENCHANTED 0.0000
-3.3015 <s> END 0.0000
-3.3015 <s> ENGINE 0.0000
-3.3015 <s> ENORMOUS 0.0000
-3.3015 <s> ENTER 0.0000
-3.3015 <s> ENVIOUS 0.0000
-3.3015 <s> EQUAL 0.0000
-3.3015 <s> ERRATIC 0.0000
-3.3015 <s> ERROR 0.0000
-3.3015 <s> ETHEREAL 0.0000
-3.3015 <s> EVEN 0.0000
-3.3015 <s> EVENT 0.0000
-3.3015 <s> EXCUSE 0.0000
-3.3015 <s> EXPAND 0.0000
-3.3015 <s> EXTRA-LARGE 0.0000
-3.3015 <s> EXTRA-SMALL 0.0000
-3.3015 <s> EYE 0.0000
-3.3015 <s> EYES 0.0000
-3.3015 <s> FACE 0.0000
-3.3015 <s> FADED 0.0000
-3.3015 <s> FAINT 0.0000
-3.3015 <s> FAIRIES 0.0000
-3.3015 <s> FALLACIOUS 0.0000
-3.3015 <s> FAMILIAR 0.0000
-3.3015 <s> FANATICAL 0.0000
-3.3015 <s> FANCY 0.0000
-3.3015 <s> FANG 0.0000
-3.3015 <s> FAR-FLUNG 0.0000
-3.3015 <s> FASCINATED 0.0000
-3.3015 <s> FAST 0.0000
-3.3015 <s> FASTEN 0.0000
-3.3015 <s> FEELING 0.0000
-3.3015 <s> FEIGNED 0.0000
-3.3015 <s> FEMALE 0.0000
-3.3015 <s> FESTIVE 0.0000
-3.3015 <s> FETCH 0.0000
-3.3015 <s> FIERCE 0.0000
-3.3015 <s> FINGER 0.0000
-3.3015 <s> FINICKY 0.0000
-3.3015 <s> FIRST 0.0000
-3.3015 <s> FISH 0.0000
-3.3015 <s> FIT 0.0000
-3.3015 <s> FIXED 0.0000
-3.3015 <s> FLAGRANT 0.0000
-3.3015 <s> FLAME 0.0000
-3.3015 <s> FLASHY 0.0000
-3.3015 <s> FLAT 0.0000
-3.3015 <s> FLAVOR 0.0000
-3.3015 <s> FLOOD 0.0000
-3.3015 <s> FLOOR 0.0000
-3.3015 <s> FLOW 0.0000
-3.3015 <s> FOAMY 0.0000
-3.3015 <s> FOLD 0.0000
-3.3015 <s> FOOD 0.0000
-3.3015 <s> FOOLISH 0.0000
-3.3015 <s> FOOT 0.0000
-3.3015 <s> FORGETFUL 0.0000
-3.3015 <s> FORK 0.0000
-3.3015 <s> FORM 0.0000
-3.3015 <s> FOUR 0.0000
-3.3015 <s> FOWL 0.0000
-3.3015 <s> FRAME 0.0000
-3.3015 <s> FREE 0.0000
-3.3015 <s> FREEZING 0.0000
-3.3015 <s> FREQUENT 0.0000
-3.3015 <s> FRIGHTENED 0.0000
-3.3015 <s> FROG 0.0000
-3.3015 <s> FRONT 0.0000
-3.3015 <s> FRUIT 0.0000
-3.3015 <s> FRY 0.0000
-3.3015 <s> FUMBLING 0.0000
-3.3015 <s> FUNNY 0.0000
-3.3015 <s> FURTIVE 0.0000
-3.3015 <s> FUTURE 0.0000
-3.3015 <s> FUTURISTIC 0.0000
-3.3015 <s> GAMY 0.0000
-3.3015 <s> GATE 0.0000
-3.3015 <s> GATHER 0.0000
-3.3015 <s> GAUDY 0.0000
-3.3015 <s> GAZE 0.0000
-3.3015 <s> GHOST 0.0000
-3.3015 <s> GIANTS 0.0000
-3.3015 <s> GIGANTIC 0.0000
-3.3015 <s> GIRL 0.0000
-3.3015 <s> GLASS 0.0000
-3.3015 <s> GLEAMING 0.0000
-3.3015 <s> GLISTENING 0.0000
-3.3015 <s> GLOVE 0.0000
-3.3015 <s> GLUE 0.0000
-3.3015 <s> GOLD 0.0000
-3.3015 <s> GOOFY 0.0000
-3.3015 <s> GRACEFUL 0.0000
-3.3015 <s> GRADE 0.0000
-3.3015 <s> GRATE 0.0000
-3.3015 <s> GREEN 0.0000
-3.3015 <s> GREY 0.0000
-3.3015 <s> GROAN 0.0000
-3.3015 <s> GROOVY 0.0000
-3.3015 <s> GROUND 0.0000
-3.3015 <s> GROUP 0.0000
-3.3015 <s> GRUESOME 0.0000
-3.3015 <s> GUARANTEE 0.0000
-3.0004 <s> GUIDE 0.0000
-3.3015 <s> GUN 0.0000
-3.3015 <s> HAIR 0.0000
-3.3015 <s> HALLOWED 0.0000
-3.3015 <s> HALTING 0.0000
-3.3015 <s> HAMMER 0.0000
-3.3015 <s> HAND 0.0000
-3.3015 <s> HANDS 0.0000
-3.3015 <s> HANDSOMELY 0.0000
-3.3015 <s> HANDY 0.0000
-3.3015 <s> HANG 0.0000
-3.3015 <s> HANGING 0.0000
-3.3015 <s> HAPPEN 0.0000
-3.3015 <s> HARASS 0.0000
-3.3015 <s> HARBOR 0.0000
-3.3015 <s> HARD 0.0000
-3.3015 <s> HARM 0.0000
-3.3015 <s> HARMONIOUS 0.0000
-3.3015 <s> HARSH 0.0000
-3.3015 <s> HAT 0.0000
-3.3015 <s> HATEFUL 0.0000
-3.3015 <s> HAUNT 0.0000
-3.3015 <s> HEAD 0.0000
-3.3015 <s> HEAL 0.0000
-3.3015 <s> HEALTHY 0.0000
-3.3015 <s> HEAP 0.0000
-3.3015 <s> HEARTBREAKING 0.0000
-3.3015 <s> HEAT 0.0000
-3.3015 <s> HELPFUL 0.0000
-3.3015 <s> HIGH 0.0000
-3.3015 <s> HIGH-PITCHED 0.0000
-3.3015 <s> HIGHFALUTIN 0.0000
-3.3015 <s> HILARIOUS 0.0000
-3.3015 <s> HILL 0.0000
-3.3015 <s> HOBBIES 0.0000
-3.3015 <s> HOLE 0.0000
-3.3015 <s> HOLISTIC 0.0000
-3.3015 <s> HOMELY 0.0000
-3.3015 <s> HONEY 0.0000
-3.3015 <s> HONORABLE 0.0000
-3.0004 <s> HOOK 0.0000
-3.3015 <s> HOPE 0.0000
-3.3015 <s> HORRIBLE 0.0000
-3.3015 <s> HORSE 0.0000
-3.3015 <s> HORSES 0.0000
-3.3015 <s> HOSPITABLE 0.0000
-3.3015 <s> HOUSE 0.0000
-3.3015 <s> HOUSES 0.0000
-3.3015 <s> HUMOR 0.0000
-3.3015 <s> HUNGRY 0.0000
-3.3015 <s> HURRY 0.0000
-3.3015 <s> HYSTERICAL 0.0000
-3.3015 <s> ICY 0.0000
-3.3015 <s> IDEA 0.0000
-3.3015 <s> IDENTIFY 0.0000
-3.3015 <s> IGNORANT 0.0000
-3.3015 <s> ILLUSTRIOUS 0.0000
-3.3015 <s> IMPOLITE 0.0000
-3.3015 <s> IMPORTANT 0.0000
-3.3015 <s> IMPROVE 0.0000
-3.3015 <s> IMPULSE 0.0000
-3.3015 <s> INCOME 0.0000
-3.3015 <s> INCOMPETENT 0.0000
-3.3015 <s> INCREDIBLE 0.0000
-3.3015 <s> INDUSTRIOUS 0.0000
-3.3015 <s> INDUSTRY 0.0000
-3.3015 <s> INFAMOUS 0.0000
-3.3015 <s> INJURE 0.0000
-3.3015 <s> INNATE 0.0000
-3.3015 <s> INSECT 0.0000
-3.3015 <s> INSIDIOUS 0.0000
-3.3015 <s> INTEND 0.0000
-3.3015 <s> INTERNAL 0.0000
-3.3015 <s> INTRODUCE 0.0000
-3.3015 <s> INVENTION 0.0000
-3.3015 <s> INVITE 0.0000
-3.3015 <s> IRRITATING 0.0000
-3.3015 <s> ITCHY 0.0000
-3.3015 <s> JAIL 0.0000
-3.3015 <s> JAR 0.0000
-3.3015 <s> JEALOUS 0.0000
-3.3015 <s> JELLYFISH 0.0000
-3.3015 <s> JITTERY 0.0000
-3.0004 <s> JOIN 0.0000
-3.3015 <s> JOKE 0.0000
-3.3015 <s> JOLLY 0.0000
-3.0004 <s> JUDGE 0.0000
-3.3015 <s> JUDICIOUS 0.0000
-3.3015 <s> JUMBLED 0.0000
-3.0004 <s> JUMP 0.0000
-3.3015 <s> KEEN 0.0000
-3.3015 <s> KETTLE 0.0000
-3.3015 <s> KICK 0.0000
-3.3015 <s> KILL 0.0000
-3.3015 <s> KITTY 0.0000
-3.3015 <s> KNIFE 0.0000
-3.3015 <s> KNIT 0.0000
-3.3015 <s> KNOT 0.0000
-3.3015 <s> KNOTTY 0.0000
-3.3015 <s> KNOWING 0.0000
-3.3015 <s> KNOWLEDGEABLE 0.0000
-3.3015 <s> LAMP 0.0000
-3.3015 <s> LANGUAGE 0.0000
-3.3015 <s> LAST 0.0000
-3.3015 <s> LAVISH 0.0000
-3.3015 <s> LEATHER 0.0000
-3.3015 <s> LEFT 0.0000
-3.3015 <s> LETTER 0.0000
-3.3015 <s> LEVEL 0.0000
-3.3015 <s> LICENSE 0.0000
-3.3015 <s> LIMPING 0.0000
-3.3015 <s> LIP 0.0000
-3.3015 <s> LIVELY 0.0000
-3.3015 <s> LOAF 0.0000
-3.0004 <s> LOCK 0.0000
-3.3015 <s> LOCKET 0.0000
-3.3015 <s> LONELY 0.0000
-3.0004 <s> LOOK 0.0000
-3.3015 <s> LOPSIDED 0.0000
-3.3015 <s> LOSS 0.0000
-3.3015 <s> LOUTISH 0.0000
-3.3015 <s> LOVE 0.0000
-3.3015 <s> LOVELY 0.0000
-3.3015 <s> LOW 0.0000
-3.3015 <s> LUXURIANT 0.0000
-3.3015 <s> LYRICAL 0.0000
-3.3015 <s> MADLY 0.0000
-3.3015 <s> MAGENTA 0.0000
-3.3015 <s> MAGNIFICENT 0.0000
-3.3015 <s> MAID 0.0000
-3.3015 <s> MAILBOX 0.0000
-3.3015 <s> MAJESTIC 0.0000
-3.3015 <s> MAMMOTH 0.0000
-3.3015 <s> MANY 0.0000
-3.3015 <s> MARBLE 0.0000
-3.3015 <s> MARK 0.0000
-3.3015 <s> MARKET 0.0000
-3.3015 <s> MARRY 0.0000
-3.3015 <s> MATCH 0.0000
-3.3015 <s> MATE 0.0000
-3.3015 <s> MATURE 0.0000
-3.3015 <s> MEASURE 0.0000
-3.3015 <s> MEDICAL 0.0000
-3.3015 <s> MELTED 0.0000
-3.3015 <s> MERCIFUL 0.0000
-3.3015 <s> MESSY 0.0000
-3.3015 <s> METAL 0.0000
-3.3015 <s> MICE 0.0000
-3.3015 <s> MIDDLE 0.0000
-3.3015 <s> MILITARY 0.0000
-3.3015 <s> MILK 0.0000
-3.3015 <s> MINE 0.0000
-3.3015 <s> MINION 0.0000
-3.3015 <s> MINISTER 0.0000
-3.3015 <s> MISCREANT 0.0000
-3.3015 <s> MOANING 0.0000
-3.3015 <s> MOM 0.0000
-3.3015 <s> MONEY 0.0000
-3.3015 <s> MOTHER 0.0000
-3.3015 <s> MOUNTAIN 0.0000
-3.3015 <s> MOVE 0.0000
-3.3015 <s> MUNDANE 0.0000
-3.3015 <s> MUSCLE 0.0000
-3.3015 <s> NAIVE 0.0000
-3.3015 <s> NAME 0.0000
-3.3015 <s> NATION 0.0000
-3.3015 <s> NEAT 0.0000
-3.3015 <s> NEBULOUS 0.0000
-3.3015 <s> NECESSARY 0.0000
-3.0004 <s> NEED 0.0000
-3.3015 <s> NEEDY 0.0000
-3.3015 <s> NEIGHBORLY 0.0000
-3.3015 <s> NEXT 0.0000
-3.3015 <s> NIGHT 0.0000
-3.3015 <s> NOISE 0.0000
-3.3015 <s> NONDESCRIPT 0.0000
-3.3015 <s> NONSTOP 0.0000
-3.3015 <s> NORMAL 0.0000
-3.3015 <s> NORTH 0.0000
-3.3015 <s> NOSE 0.0000
-3.3015 <s> NOSTALGIC 0.0000
-3.3015 <s> NOTICE 0.0000
-3.3015 <s> NUMBER 0.0000
-3.3015 <s> NUMBERLESS 0.0000
-3.3015 <s> NUTTY 0.0000
-3.3015 <s> OBEDIENT 0.0000
-3.3015 <s> OBNOXIOUS 0.0000
-3.3015 <s> OBSERVANT 0.0000
-3.3015 <s> OCEANIC 0.0000
-3.3015 <s> OFFEND 0.0000
-3.3015 <s> OFFER 0.0000
-3.3015 <s> OLD-FASHIONED 0.0000
-3.3015 <s> ONE 0.0000
-3.3015 <s> OPEN 0.0000
-3.3015 <s> OPTIMAL 0.0000
-3.3015 <s> ORANGE 0.0000
-3.3015 <s> ORANGES 0.0000
-3.3015 <s> OVAL 0.0000
-3.3015 <s> OVERFLOW 0.0000
-3.3015 <s> OVERT 0.0000
-3.3015 <s> OWE 0.0000
-3.3015 <s> OWN 0.0000
-3.3015 <s> PACK 0.0000
-3.3015 <s> PAGE 0.0000
-3.3015 <s> PAINFUL 0.0000
-3.3015 <s> PAINSTAKING 0.0000
-3.3015 <s> PALE 0.0000
-3.3015 <s> PANCAKE 0.0000
-3.3015 <s> PANORAMIC 0.0000
-3.3015 <s> PARALLEL 0.0000
-3.3015 <s> PARK 0.0000
-3.3015 <s> PART 0.0000
-3.3015 <s> PARTNER 0.0000
-3.3015 <s> PASS 0.0000
-3.3015 <s> PAST 0.0000
-3.3015 <s> PEACE 0.0000
-3.3015 <s> PEACEFUL 0.0000
-3.3015 <s> PEDAL 0.0000
-3.3015 <s> PERFECT 0.0000
-3.3015 <s> PERIODIC 0.0000
-3.3015 <s> PERSON 0.0000
-3.3015 <s> PEST 0.0000
-3.3015 <s> PET 0.0000
-3.0004 <s> PETITE 0.0000
-3.3015 <s> PETS 0.0000
-3.3015 <s> PHONE 0.0000
-3.3015 <s> PHYSICAL 0.0000
-3.3015 <s> PIE 0.0000
-3.3015 <s> PIG 0.0000
-3.3015 <s> PINE 0.0000
-3.3015 <s> PIZZAS 0.0000
-3.3015 <s> PLAN 0.0000
-3.0004 <s> PLANT 0.0000
-3.3015 <s> PLANTS 0.0000
-3.3015 <s> PLAUSIBLE 0.0000
-3.3015 <s> PLAYGROUND 0.0000
-3.3015 <s> PLOT 0.0000
-3.3015 <s> POCKET 0.0000
-3.0004 <s> POINT 0.0000
-3.3015 <s> POISED 0.0000
-3.3015 <s> POPCORN 0.0000
-3.3015 <s> POSITION 0.0000
-3.3015 <s> POST 0.0000
-3.3015 <s> POT 0.0000
-3.3015 <s> POUR 0.0000
-3.3015 <s> POWDER 0.0000
-3.3015 <s> PRECEDE 0.0000
-3.3015 <s> PREPARE 0.0000
-3.3015 <s> PRESENT 0.0000
-3.3015 <s> PRESERVE 0.0000
-3.3015 <s> PRETEND 0.0000
-3.3015 <s> PREVENT 0.0000
-3.3015 <s> PRODUCE 0.0000
-3.3015 <s> PROGRAM 0.0000
-3.3015 <s> PROPERTY 0.0000
-3.3015 <s> PROTECT 0.0000
-3.3015 <s> PUBLIC 0.0000
-3.3015 <s> PUNCH 0.0000
-3.3015 <s> PUNCTURE 0.0000
-3.3015 <s> PUNISH 0.0000
-3.3015 <s> PUNISHMENT 0.0000
-3.3015 <s> PUNY 0.0000
-3.3015 <s> PUSH 0.0000
-3.3015 <s> PUSHY 0.0000
-3.3015 <s> PUZZLED 0.0000
-3.3015 <s> PUZZLING 0.0000
-3.3015 <s> QUACK 0.0000
-3.3015 <s> QUAINT 0.0000
-3.3015 <s> QUARRELSOME 0.0000
-3.3015 <s> QUARTER 0.0000
-3.3015 <s> QUARTZ 0.0000
-3.3015 <s> QUEEN 0.0000
-3.3015 <s> QUEUE 0.0000
-3.3015 <s> QUICKEST 0.0000
-3.3015 <s> QUILT 0.0000
-3.3015 <s> QUINCE 0.0000
-3.3015 <s> QUIXOTIC 0.0000
-3.3015 <s> QUIZZICAL 0.0000
-3.3015 <s> RADIATE 0.0000
-3.3015 <s> RAILWAY 0.0000
-3.0004 <s> RAIN 0.0000
-3.3015 <s> RAISE 0.0000
-3.3015 <s> RAMBUNCTIOUS 0.0000
-3.3015 <s> RAMPANT 0.0000
-3.3015 <s> RARE 0.0000
-3.3015 <s> RASPY 0.0000
-3.3015 <s> RAT 0.0000
-3.3015 <s> RATTY 0.0000
-3.3015 <s> REAL 0.0000
-3.3015 <s> RECEIVE 0.0000
-3.3015 <s> RECEPTIVE 0.0000
-3.3015 <s> RECESS 0.0000
-3.3015 <s> RECONDITE 0.0000
-3.3015 <s> RECORD 0.0000
-3.3015 <s> REDUNDANT 0.0000
-3.3015 <s> REFLECTIVE 0.0000
-3.3015 <s> REGULAR 0.0000
-3.3015 <s> RELAX 0.0000
-3.3015 <s> RELEASE 0.0000
-3.3015 <s> RELIEVED 0.0000
-3.3015 <s> RELY 0.0000
-3.3015 <s> REMARKABLE 0.0000
-3.3015 <s> REMOVE 0.0000
-3.3015 <s> REPEAT 0.0000
-3.3015 <s> REPRESENTATIVE 0.0000
-3.3015 <s> REPRODUCE 0.0000
-3.3015 <s> REQUEST 0.0000
-3.3015 <s> RESCUE 0.0000
-3.3015 <s> RESPONSIBLE 0.0000
-3.3015 <s> REST 0.0000
-3.3015 <s> RETIRE 0.0000
-3.3015 <s> RICE 0.0000
-3.3015 <s> RIFLE 0.0000
-3.3015 <s> RINGS 0.0000
-3.3015 <s> RIPE 0.0000
-3.3015 <s> RITZY 0.0000
-3.3015 <s> ROASTED 0.0000
-3.3015 <s> ROB 0.0000
-3.3015 <s> ROCK 0.0000
-3.0004 <s> ROLL 0.0000
-3.3015 <s> ROMANTIC 0.0000
-3.3015 <s> ROSE 0.0000
-3.3015 <s> ROT 0.0000
-3.3015 <s> ROYAL 0.0000
-3.3015 <s> RUDE 0.0000
-3.3015 <s> RULE 0.0000
-3.3015 <s> SALTY 0.0000
-3.3015 <s> SAME 0.0000
-3.3015 <s> SAND 0.0000
-3.3015 <s> SATISFY 0.0000
-3.3015 <s> SATISFYING 0.0000
-3.3015 <s> SAVE 0.0000
-3.3015 <s> SAW 0.0000
-3.3015 <s> SCARCE 0.0000
-3.3015 <s> SCARECROW 0.0000
-3.3015 <s> SCARED 0.0000
-3.3015 <s> SCARF 0.0000
-3.3015 <s> SCENT 0.0000
-3.3015 <s> SCIENTIFIC 0.0000
-3.3015 <s> SCISSORS 0.0000
-3.3015 <s> SCREECHING 0.0000
-3.3015 <s> SCRUB 0.0000
-3.3015 <s> SEASHORE 0.0000
-3.3015 <s> SEED 0.0000
-3.3015 <s> SELECTIVE 0.0000
-3.3015 <s> SELFISH 0.0000
-3.3015 <s> SEPARATE 0.0000
-3.3015 <s> SETTLE 0.0000
-3.3015 <s> SHALLOW 0.0000
-3.3015 <s> SHARP 0.0000
-3.3015 <s> SHEET 0.0000
-3.3015 <s> SHELF 0.0000
-3.3015 <s> SHELTER 0.0000
-3.3015 <s> SHIRT 0.0000
-3.3015 <s> SHIVER 0.0000
-3.3015 <s> SHOCK 0.0000
-3.3015 <s> SHOP 0.0000
-3.3015 <s> SHOW 0.0000
-3.3015 <s> SHY 0.0000
-3.3015 <s> SIGN 0.0000
-3.3015 <s> SILENT 0.0000
-3.3015 <s> SINK 0.0000
-3.3015 <s> SKATE 0.0000
-3.3015 <s> SKI 0.0000
-3.3015 <s> SKIP 0.0000
-3.3015 <s> SLEEP 0.0000
-3.3015 <s> SLEET 0.0000
-3.3015 <s> SLIM 0.0000
-3.3015 <s> SLOPPY 0.0000
-3.3015 <s> SLOW 0.0000
-3.3015 <s> SMALL 0.0000
-3.0004 <s> SMASH 0.0000
-3.0004 <s> SMILE 0.0000
-3.3015 <s> SMILING 0.0000
-3.3015 <s> SMOGGY 0.0000
-3.3015 <s> SMOKE 0.0000
-3.3015 <s> SNAKE 0.0000
-3.3015 <s> SNAKES 0.0000
-3.3015 <s> SNATCH 0.0000
-3.3015 <s> SNEEZE 0.0000
-3.3015 <s> SNOBBISH 0.0000
-3.0004 <s> SNOW 0.0000
-3.3015 <s> SOCIETY 0.0000
-3.3015 <s> SODA 0.0000
-3.3015 <s> SOFA 0.0000
-3.3015 <s> SOMBER 0.0000
-3.3015 <s> SON 0.0000
-3.3015 <s> SONGS 0.0000
-3.3015 <s> SOOTHE 0.0000
-3.3015 <s> SORE 0.0000
-3.3015 <s> SORT 0.0000
-3.3015 <s> SOUND 0.0000
-3.3015 <s> SPADE 0.0000
-3.3015 <s> SPARE 0.0000
-3.0004 <s> SPARK 0.0000
-3.3015 <s> SPARKLING 0.0000
-3.3015 <s> SPECTACULAR 0.0000
-3.3015 <s> SPIFFY 0.0000
-3.3015 <s> SPIRITUAL 0.0000
-3.3015 <s> SPITEFUL 0.0000
-3.3015 <s> SPLENDID 0.0000
-3.3015 <s> SPONGE 0.0000
-3.3015 <s> SPOON 0.0000
-3.0004 <s> SPOT 0.0000
-3.3015 <s> SPOTTED 0.0000
-3.3015 <s> SPRAY 0.0000
-3.3015 <s> SPROUT 0.0000
-3.3015 <s> SPY 0.0000
-3.3015 <s> SQUARE 0.0000
-3.3015 <s> SQUASH 0.0000
-3.3015 <s> SQUEAL 0.0000
-3.3015 <s> STAGE 0.0000
-3.3015 <s> STAIN 0.0000
-3.3015 <s> STAKING 0.0000
-3.3015 <s> STALE 0.0000
-3.0004 <s> STAMP 0.0000
-3.3015 <s> STANDING 0.0000
-3.3015 <s> STARE 0.0000
-3.3015 <s> START 0.0000
-3.3015 <s> STATION 0.0000
-3.3015 <s> STEADFAST 0.0000
-3.3015 <s> STEAM 0.0000
-3.3015 <s> STEEP 0.0000
-3.3015 <s> STEW 0.0000
-3.3015 <s> STICK 0.0000
-3.3015 <s> STIFF 0.0000
-3.3015 <s> STIMULATING 0.0000
-3.3015 <s> STIR 0.0000
-3.3015 <s> STITCH 0.0000
-3.3015 <s> STOMACH 0.0000
-3.3015 <s> STOP 0.0000
-3.0004 <s> STORE 0.0000
-3.3015 <s> STOVE 0.0000
-3.3015 <s> STRAIGHT 0.0000
-3.3015 <s> STRANGE 0.0000
-3.3015 <s> STRAP 0.0000
-3.3015 <s> STRAW 0.0000
-3.3015 <s> STRING 0.0000
-3.3015 <s> STROKE 0.0000
-3.3015 <s> STUFF 0.0000
-3.3015 <s> STUPENDOUS 0.0000
-3.3015 <s> SUBDUED 0.0000
-3.3015 <s> SUBSEQUENT 0.0000
-3.3015 <s> SUBSTANCE 0.0000
-3.3015 <s> SUBSTANTIAL 0.0000
-3.3015 <s> SUGAR 0.0000
-3.3015 <s> SUGGEST 0.0000
-3.3015 <s> SUGGESTION 0.0000
-3.3015 <s> SUIT 0.0000
-3.3015 <s> SULKY 0.0000
-3.3015 <s> SUPER 0.0000
-3.3015 <s> SUPERB 0.0000
-3.0004 <s> SUPPORT 0.0000
-3.3015 <s> SUSPEND 0.0000
-3.3015 <s> SWEATER 0.0000
-3.3015 <s> SWELTERING 0.0000
-3.3015 <s> SWIFT 0.0000
-3.3015 <s> SWIM 0.0000
-3.3015 <s> SYNONYMOUS 0.0000
-3.3015 <s> TACIT 0.0000
-3.3015 <s> TAIL 0.0000
-3.3015 <s> TALK 0.0000
-3.3015 <s> TAN 0.0000
-3.3015 <s> TAP 0.0000
-3.3015 <s> TART 0.0000
-3.3015 <s> TASTEFUL 0.0000
-3.3015 <s> TASTY 0.0000
-3.3015 <s> TEAM 0.0000
-3.3015 <s> TEETH 0.0000
-3.3015 <s> TELLING 0.0000
-3.3015 <s> TEMPORARY 0.0000
-3.3015 <s> TEMPT 0.0000
-3.3015 <s> TENDENCY 0.0000
-3.3015 <s> TENT 0.0000
-3.3015 <s> TERRIBLE 0.0000
-3.3015 <s> TERRIFIC 0.0000
-3.3015 <s> TEST 0.0000
-3.3015 <s> TEXTURE 0.0000
-3.3015 <s> THEORY 0.0000
-3.3015 <s> THERAPEUTIC 0.0000
-3.0004 <s> THIRSTY 0.0000
-3.3015 <s> THOUGHT 0.0000
-3.3015 <s> THRILL 0.0000
-3.3015 <s> THRONE 0.0000
-3.3015 <s> TICKET 0.0000
-3.3015 <s> TIE 0.0000
-3.3015 <s> TIME 0.0000
-3.3015 <s> TOE 0.0000
-3.3015 <s> TOES 0.0000
-3.3015 <s> TOOTHBRUSH 0.0000
-3.3015 <s> TOOTHPASTE 0.0000
-3.3015 <s> TOP 0.0000
-3.3015 <s> TOUGH 0.0000
-3.3015 <s> TOUR 0.0000
-3.3015 <s> TOWN 0.0000
-3.3015 <s> TRACE 0.0000
-3.3015 <s> TRAIN 0.0000
-3.3015 <s> TRANQUIL 0.0000
-3.3015 <s> TRANSPORT 0.0000
-3.3015 <s> TREES 0.0000
-3.3015 <s> TREMBLE 0.0000
-3.3015 <s> TROUSERS 0.0000
-3.3015 <s> TUG 0.0000
-3.3015 <s> TURKEY 0.0000
-3.0004 <s> TURN 0.0000
-3.3015 <s> TWO 0.0000
-3.3015 <s> TYPICAL 0.0000
-3.3015 <s> UNADVISED 0.0000
-3.3015 <s> UNBIASED 0.0000
-3.3015 <s> UNCLE 0.0000
-3.3015 <s> UNCOVERED 0.0000
-3.3015 <s> UNDERSTOOD 0.0000
-3.3015 <s> UNEVEN 0.0000
-3.3015 <s> UNHEALTHY 0.0000
-3.3015 <s> UNIT 0.0000
-3.3015 <s> UNITE 0.0000
-3.3015 <s> UNKNOWN 0.0000
-3.3015 <s> UNNATURAL 0.0000
-3.0004 <s> UNTIDY 0.0000
-3.3015 <s> UPPITY 0.0000
-3.3015 <s> UPSET 0.0000
-3.3015 <s> USE 0.0000
-3.3015 <s> UTOPIAN 0.0000
-3.3015 <s> UTTER 0.0000
-3.3015 <s> UTTERMOST 0.0000
-3.3015 <s> VAGABOND 0.0000
-3.3015 <s> VAN 0.0000
-3.3015 <s> VANISH 0.0000
-3.3015 <s> VAST 0.0000
-3.3015 <s> VEIL 0.0000
-3.3015 <s> VENGEFUL 0.0000
-3.3015 <s> VERDANT 0.0000
-3.3015 <s> VIGOROUS 0.0000
-3.3015 <s> VISITOR 0.0000
-3.3015 <s> VIVACIOUS 0.0000
-3.3015 <s> WACKY 0.0000
-3.3015 <s> WAIL 0.0000
-3.3015 <s> WAIT 0.0000
-3.3015 <s> WALL 0.0000
-3.3015 <s> WANDERING 0.0000
-3.3015 <s> WANT 0.0000
-3.3015 <s> WANTING 0.0000
-3.3015 <s> WARY 0.0000
-3.3015 <s> WASH 0.0000
-3.3015 <s> WASTE 0.0000
-3.3015 <s> WASTEFUL 0.0000
-3.3015 <s> WAY 0.0000
-3.3015 <s> WEAK 0.0000
-3.3015 <s> WEATHER 0.0000
-3.3015 <s> WEIGH 0.0000
-3.3015 <s> WEIGHT 0.0000
-3.3015 <s> WHEEL 0.0000
-3.0004 <s> WHIP 0.0000
-3.3015 <s> WHIRL 0.0000
-3.3015 <s> WHISPER 0.0000
-3.3015 <s> WHISPERING 0.0000
-3.3015 <s> WHITE 0.0000
-3.3015 <s> WIGGLY 0.0000
-3.3015 <s> WIND 0.0000
-3.3015 <s> WINDOW 0.0000
-3.3015 <s> WING 0.0000
-3.3015 <s> WIPE 0.0000
-3.3015 <s> WIRE 0.0000
-3.3015 <s> WISH 0.0000
-3.3015 <s> WITTY 0.0000
-3.3015 <s> WOEBEGONE 0.0000
-3.3015 <s> WOMAN 0.0000
-3.3015 <s> WONDER 0.0000
-3.3015 <s> WONDERFUL 0.0000
-3.3015 <s> WOOL 0.0000
-3.3015 <s> WOOZY 0.0000
-3.3015 <s> WORD 0.0000
-3.3015 <s> WORM 0.0000
-3.3015 <s> WORRY 0.0000
-3.3015 <s> WORTHLESS 0.0000
-3.3015 <s> WRECK 0.0000
-3.3015 <s> WRENCH 0.0000
-3.3015 <s> WRESTLE 0.0000
-3.3015 <s> WRETCHED 0.0000
-3.3015 <s> WRITING 0.0000
-3.3015 <s> WRY 0.0000
-3.3015 <s> YAM 0.0000
-3.3015 <s> YARD 0.0000
-3.3015 <s> YELLOW 0.0000
-3.3015 <s> YOUNG 0.0000
-3.3015 <s> ZEBRA 0.0000
-3.3015 <s> ZIPPER 0.0000
-3.3015 <s> ZIPPY 0.0000
-3.3015 <s> ZOOM 0.0000
-0.3010 ABANDONED </s> -0.3010
-0.3010 ABERRANT </s> -0.3010
-0.3010 ABHORRENT </s> -0.3010
-0.3010 ABLE </s> -0.3010
-0.3010 ABOUNDING </s> -0.3010
-0.3010 ABSORBED </s> -0.3010
-0.3010 ABSORBING </s> -0.3010
-0.3010 ABSTRACTED </s> -0.3010
-0.3010 ABSURD </s> -0.3010
-0.3010 ABUNDANT </s> -0.3010
-0.3010 ACCEPTABLE </s> -0.3010
-0.3010 ACCURATE </s> -0.3010
-0.3010 ACID </s> -0.3010
-0.3010 ACOUSTIC </s> -0.3010
-0.3010 ACRID </s> -0.3010
-0.3010 ADAMANT </s> -0.3010
-0.3010 ADDITION </s> -0.3010
-0.3010 ADHESIVE </s> -0.3010
-0.3010 ADJUSTMENT </s> -0.3010
-0.3010 ADMIRE </s> -0.3010
-0.3010 ADMIT </s> -0.3010
-0.3010 ADVERTISEMENT </s> -0.3010
-0.3010 ADVISE </s> -0.3010
-0.3010 AFFORD </s> -0.3010
-0.3010 AFTERMATH </s> -0.3010
-0.3010 AGONIZING </s> -0.3010
-0.3010 AHEAD </s> -0.3010
-0.3010 AIRPLANE </s> -0.3010
-0.3010 AJAR </s> -0.3010
-0.3010 ALERT </s> -0.3010
-0.3010 ALIVE </s> -0.3010
-0.3010 ALLOW </s> -0.3010
-0.3010 ALOOF </s> -0.3010
-0.3010 AMAZING </s> -0.3010
-0.3010 AMBIGUOUS </s> -0.3010
-0.3010 AMBITIOUS </s> -0.3010
-0.3010 AMUCK </s> -0.3010
-0.3010 AMUSE </s> -0.3010
-0.3010 AMUSED </s> -0.3010
-0.3010 ANGER </s> -0.3010
-0.3010 ANGRY </s> -0.3010
-0.3010 ANIMAL </s> -0.3010
-0.3010 ANIMATED </s> -0.3010
-0.3010 ANNOY </s> -0.3010
-0.3010 ANNOYING </s> -0.3010
-0.3010 APATHETIC </s> -0.3010
-0.3010 APOLOGISE </s> -0.3010
-0.3010 APPAREL </s> -0.3010
-0.3010 APPRECIATE </s> -0.3010
-0.3010 ARGUMENT </s> -0.3010
-0.3010 ARM </s> -0.3010
-0.3010 ARMY </s> -0.3010
-0.3010 AROMATIC </s> -0.3010
-0.3010 ARRIVE </s> -0.3010
-0.3010 ART </s> -0.3010
-0.3010 ASK </s> -0.3010
-0.3010 ASSORTED </s> -0.3010
-0.3010 ASTONISHING </s> -0.3010
-0.3010 ATTACH </s> -0.3010
-0.3010 ATTACK </s> -0.3010
-0.3010 ATTEND </s> -0.3010
-0.3010 ATTRACT </s> -0.3010
-0.3010 AUTOMATIC </s> -0.3010
-0.3010 AVOID </s> -0.3010
-0.3010 AXIOMATIC </s> -0.3010
-0.3010 BABY </s> -0.3010
-0.3010 BACK </s> -0.3010
-0.3010 BAD </s> -0.3010
-0.3010 BAIT </s> -0.3010
-0.3010 BAKE </s> -0.3010
-0.3010 BALANCE </s> -0.3010
-0.3010 BANG </s> -0.3010
-0.3010 BASHFUL </s> -0.3010
-0.3010 BASIN </s> -0.3010
-0.3010 BASKET </s> -0.3010
-0.3010 BASKETBALL </s> -0.3010
-0.3010 BATTLE </s> -0.3010
-0.3010 BAWDY </s> -0.3010
-0.3010 BEAUTIFUL </s> -0.3010
-0.3010 BED </s> -0.3010
-0.3010 BEDS </s> -0.3010
-0.3010 BEEF </s> -0.3010
-0.3010 BEFITTING </s> -0.3010
-0.3010 BEG </s> -0.3010
-0.3010 BELL </s> -0.3010
-0.3010 BELLIGERENT </s> -0.3010
-0.3010 BELLS </s> -0.3010
-0.3010 BELONG </s> -0.3010
-0.3010 BERSERK </s> -0.3010
-0.3010 BETTER </s> -0.3010
-0.3010 BIRTHDAY </s> -0.3010
-0.3010 BITE-SIZED </s> -0.3010
-0.3010 BLACK </s> -0.3010
-0.3010 BLADE </s> -0.3010
-0.3010 BLEACH </s> -0.3010
-0.3010 BLESS </s> -0.3010
-0.3010 BLOODY </s> -0.3010
-0.3010 BLUSHING </s> -0.3010
-0.3010 BOIL </s> -0.3010
-0.3010 BOLT </s> -0.3010
-0.3010 BOMB </s> -0.3010
-0.3010 BOOK </s> -0.3010
-0.3010 BOORISH </s> -0.3010
-0.3010 BOOT </s> -0.3010
-0.3010 BORED </s> -0.3010
-0.3010 BORING </s> -0.3010
-0.3010 BOTTLE </s> -0.3010
-0.3010 BOUNCY </s> -0.3010
-0.3010 BOUNDARY </s> -0.3010
-0.3010 BOX </s> -0.3010
-0.3010 BRANCH </s> -0.3010
-0.3010 BRASH </s> -0.3010
-0.3010 BRASS </s> -0.3010
-0.3010 BREATH </s> -0.3010
-0.3010 BRIGHT </s> -0.3010
-0.3010 BROAD </s> -0.3010
-0.3010 BROKEN </s> -0.3010
-0.3010 BUCKET </s> -0.3010
-0.3010 BUILDING </s> -0.3010
-0.3010 BURST </s> -0.3010
-0.3010 BUTTER </s> -0.3010
-0.3010 CABLE </s> -0.3010
-0.3010 CALCULATE </s> -0.3010
-0.3010 CALCULATING </s> -0.3010
-0.3010 CALL </s> -0.3010
-0.3010 CALLOUS </s> -0.3010
-0.3010 CAMERA </s> -0.3010
-0.3010 CAMP </s> -0.3010
-0.3010 CANVAS </s> -0.3010
-0.3010 CAP </s> -0.3010
-0.3010 CAPABLE </s> -0.3010
-0.3010 CAPRICIOUS </s> -0.3010
-0.3010 CAR </s> -0.3010
-0.3010 CARD </s> -0.3010
-0.3010 CARE </s> -0.3010
-0.3010 CARRIAGE </s> -0.3010
-0.3010 CARRY </s> -0.3010
-0.3010 CARS </s> -0.3010
-0.3010 CARVE </s> -0.3010
-0.3010 CATS </s> -0.3010
-0.3010 CELLAR </s> -0.3010
-0.3010 CERTAIN </s> -0.3010
-0.3010 CHARMING </s> -0.3010
-0.3010 CHEAP </s> -0.3010
-0.3010 CHEESE </s> -0.3010
-0.3010 CHERRIES </s> -0.3010
-0.3010 CHERRY </s> -0.3010
-0.3010 CHESS </s> -0.3010
-0.3010 CHEW </s> -0.3010
-0.3010 CHICKENS </s> -0.3010
-0.3010 CHILDLIKE </s> -0.3010
-0.3010 CHILDREN </s> -0.3010
-0.3010 CHIN </s> -0.3010
-0.3010 CHIVALROUS </s> -0.3010
-0.3010 CHUBBY </s> -0.3010
-0.3010 CLAIM </s> -0.3010
-0.3010 CLASS </s> -0.3010
-0.3010 CLEAN </s> -0.3010
-0.3010 CLEAR </s> -0.3010
-0.3010 CLEVER </s> -0.3010
-0.3010 CLOSED </s> -0.3010
-0.3010 CLOTH </s> -0.3010
-0.3010 CLOUDY </s> -0.3010
-0.3010 COBWEB </s> -0.3010
-0.3010 COIL </s> -0.3010
-0.3010 COLOR </s> -0.3010
-0.3010 COMB </s> -0.3010
-0.3010 COMBATIVE </s> -0.3010
-0.3010 COMMAND </s> -0.3010
-0.3010 COMPANY </s> -0.3010
-0.3010 COMPETITION </s> -0.3010
-0.3010 CONCENTRATE </s> -0.3010
-0.3010 CONFESS </s> -0.3010
-0.3010 CONSCIOUS </s> -0.3010
-0.3010 CONSIDER </s> -0.3010
-0.3010 CONSIST </s> -0.3010
-0.3010 COOING </s> -0.3010
-0.3010 COOPERATIVE </s> -0.3010
-0.3010 COPY </s> -0.3010
-0.3010 CORN </s> -0.3010
-0.3010 COUGH </s> -0.3010
-0.3010 COVER </s> -0.3010
-0.3010 COW </s> -0.3010
-0.3010 COWARDLY </s> -0.3010
-0.3010 CRACK </s> -0.3010
-0.3010 CRAYON </s> -0.3010
-0.3010 CRAZY </s> -0.3010
-0.3010 CREAM </s> -0.3010
-0.3010 CREATOR </s> -0.3010
-0.3010 CREATURE </s> -0.3010
-0.3010 CREEPY </s> -0.3010
-0.3010 CRIB </s> -0.3010
-0.3010 CROW </s> -0.3010
-0.3010 CROWD </s> -0.3010
-0.3010 CRUSH </s> -0.3010
-0.3010 CRY </s> -0.3010
-0.3010 CUB </s> -0.3010
-0.3010 CURIOUS </s> -0.3010
-0.3010 CURL </s> -0.3010
-0.3010 CURRENT </s> -0.3010
-0.3010 CUSHION </s> -0.3010
-0.3010 CUTE </s> -0.3010
-0.3010 DAMAGE </s> -0.3010
-0.3010 DAMAGING </s> -0.3010
-0.3010 DAUGHTER </s> -0.3010
-0.3010 DAY </s> -0.3010
-0.3010 DAZZLING </s> -0.3010
-0.3010 DEAD </s> -0.3010
-0.3010 DEADPAN </s> -0.3010
-0.3010 DEATH </s> -0.3010
-0.3010 DECAY </s> -0.3010
-0.3010 DECISIVE </s> -0.3010
-0.3010 DECORATE </s> -0.3010
-0.3010 DEFEATED </s> -0.3010
-0.3010 DELAY </s> -0.3010
-0.3010 DELICATE </s> -0.3010
-0.3010 DELICIOUS </s> -0.3010
-0.3010 DELIGHT </s> -0.3010
-0.3010 DELIRIOUS </s> -0.3010
-0.3010 DELIVER </s> -0.3010
-0.3010 DEPENDENT </s> -0.3010
-0.3010 DESCRIPTIVE </s> -0.3010
-0.3010 DESERTED </s> -0.3010
-0.3010 DESERVE </s> -0.3010
-0.3010 DESIRE </s> -0.3010
-0.3010 DESK </s> -0.3010
-0.3010 DESTROY </s> -0.3010
-0.3010 DESTRUCTION </s> -0.3010
-0.3010 DETAIL </s> -0.3010
-0.3010 DETAILED </s> -0.3010
-0.3010 DETECT </s> -0.3010
-0.3010 DEVILISH </s> -0.3010
-0.3010 DIFFERENT </s> -0.3010
-0.3010 DIFFICULT </s> -0.3010
-0.3010 DILIGENT </s> -0.3010
-0.3010 DIME </s> -0.3010
-0.3010 DINOSAURS </s> -0.3010
-0.3010 DIREFUL </s> -0.3010
-0.3010 DISAGREEABLE </s> -0.3010
-0.3010 DISAPPEAR </s> -0.3010
-0.3010 DISARM </s> -0.3010
-0.3010 DISASTROUS </s> -0.3010
-0.3010 DISCOVER </s> -0.3010
-0.3010 DISGUSTING </s> -0.3010
-0.3010 DISLIKE </s> -0.3010
-0.3010 DISTANCE </s> -0.3010
-0.3010 DISTURBED </s> -0.3010
-0.3010 DIZZY </s> -0.3010
-0.3010 DOCK </s> -0.3010
-0.3010 DONKEY </s> -0.3010
-0.3010 DOOR </s> -0.3010
-0.3010 DOUBLE </s> -0.3010
-0.3010 DOUBT </s> -0.3010
-0.3010 DRAB </s> -0.3010
-0.3010 DRAG </s> -0.3010
-0.3010 DRAWER </s> -0.3010
-0.3010 DREAM </s> -0.3010
-0.3010 DREARY </s> -0.3010
-0.3010 DRIP </s> -0.3010
-0.3010 DRUM </s> -0.3010
-0.3010 DRUNK </s> -0.3010
-0.3010 DULL </s> -0.3010
-0.3010 DUST </s> -0.3010
-0.3010 DUSTY </s> -0.3010
-0.3010 DYSFUNCTIONAL </s> -0.3010
-0.3010 EARN </s> -0.3010
-0.3010 EARSPLITTING </s> -0.3010
-0.3010 EARTH </s> -0.3010
-0.3010 EARTHY </s> -0.3010
-0.3010 EASY </s> -0.3010
-0.3010 EATABLE </s> -0.3010
-0.3010 EDUCATE </s> -0.3010
-0.3010 EGGNOG </s> -0.3010
-0.3010 EIGHT </s> -0.3010
-0.3010 ELASTIC </s> -0.3010
-0.3010 ELATED </s> -0.3010
-0.3010 ELECTRIC </s> -0.3010
-0.3010 ELEGANT </s> -0.3010
-0.3010 ELFIN </s> -0.3010
-0.3010 EMINENT </s> -0.3010
-0.3010 EMPLOY </s> -0.3010
-0.3010 EMPTY </s> -0.3010
-0.3010 ENCHANTED </s> -0.3010
-0.3010 END </s> -0.3010
-0.3010 ENGINE </s> -0.3010
-0.3010 ENORMOUS </s> -0.3010
-0.3010 ENTER </s> -0.3010
-0.3010 ENVIOUS </s> -0.3010
-0.3010 EQUAL </s> -0.3010
-0.3010 ERRATIC </s> -0.3010
-0.3010 ERROR </s> -0.3010
-0.3010 ETHEREAL </s> -0.3010
-0.3010 EVEN </s> -0.3010
-0.3010 EVENT </s> -0.3010
-0.3010 EXCUSE </s> -0.3010
-0.3010 EXPAND </s> -0.3010
-0.3010 EXTRA-LARGE </s> -0.3010
-0.3010 EXTRA-SMALL </s> -0.3010
-0.3010 EYE </s> -0.3010
-0.3010 EYES </s> -0.3010
-0.3010 FACE </s> -0.3010
-0.3010 FADED </s> -0.3010
-0.3010 FAINT </s> -0.3010
-0.3010 FAIRIES </s> -0.3010
-0.3010 FALLACIOUS </s> -0.3010
-0.3010 FAMILIAR </s> -0.3010
-0.3010 FANATICAL </s> -0.3010
-0.3010 FANCY </s> -0.3010
-0.3010 FANG </s> -0.3010
-0.3010 FAR-FLUNG </s> -0.3010
-0.3010 FASCINATED </s> -0.3010
-0.3010 FAST </s> -0.3010
-0.3010 FASTEN </s> -0.3010
-0.3010 FEELING </s> -0.3010
-0.3010 FEIGNED </s> -0.3010
-0.3010 FEMALE </s> -0.3010
-0.3010 FESTIVE </s> -0.3010
-0.3010 FETCH </s> -0.3010
-0.3010 FIERCE </s> -0.3010
-0.3010 FINGER </s> -0.3010
-0.3010 FINICKY </s> -0.3010
-0.3010 FIRST </s> -0.3010
-0.3010 FISH </s> -0.3010
-0.3010 FIT </s> -0.3010
-0.3010 FIXED </s> -0.3010
-0.3010 FLAGRANT </s> -0.3010
-0.3010 FLAME </s> -0.3010
-0.3010 FLASHY </s> -0.3010
-0.3010 FLAT </s> -0.3010
-0.3010 FLAVOR </s> -0.3010
-0.3010 FLOOD </s> -0.3010
-0.3010 FLOOR </s> -0.3010
-0.3010 FLOW </s> -0.3010
-0.3010 FOAMY </s> -0.3010
-0.3010 FOLD </s> -0.3010
-0.3010 FOOD </s> -0.3010
-0.3010 FOOLISH </s> -0.3010
-0.3010 FOOT </s> -0.3010
-0.3010 FORGETFUL </s> -0.3010
-0.3010 FORK </s> -0.3010
-0.3010 FORM </s> -0.3010
-0.3010 FOUR </s> -0.3010
-0.3010 FOWL </s> -0.3010
-0.3010 FRAME </s> -0.3010
-0.3010 FREE </s> -0.3010
-0.3010 FREEZING </s> -0.3010
-0.3010 FREQUENT </s> -0.3010
-0.3010 FRIGHTENED </s> -0.3010
-0.3010 FROG </s> -0.3010
-0.3010 FRONT </s> -0.3010
-0.3010 FRUIT </s> -0.3010
-0.3010 FRY </s> -0.3010
-0.3010 FUMBLING </s> -0.3010
-0.3010 FUNNY </s> -0.3010
-0.3010 FURTIVE </s> -0.3010
-0.3010 FUTURE </s> -0.3010
-0.3010 FUTURISTIC </s> -0.3010
-0.3010 GAMY </s> -0.3010
-0.3010 GATE </s> -0.3010
-0.3010 GATHER </s> -0.3010
-0.3010 GAUDY </s> -0.3010
-0.3010 GAZE </s> -0.3010
-0.3010 GHOST </s> -0.3010
-0.3010 GIANTS </s> -0.3010
-0.3010 GIGANTIC </s> -0.3010
-0.3010 GIRL </s> -0.3010
-0.3010 GLASS </s> -0.3010
-0.3010 GLEAMING </s> -0.3010
-0.3010 GLISTENING </s> -0.3010
-0.3010 GLOVE </s> -0.3010
-0.3010 GLUE </s> -0.3010
-0.3010 GOLD </s> -0.3010
-0.3010 GOOFY </s> -0.3010
-0.3010 GRACEFUL </s> -0.3010
-0.3010 GRADE </s> -0.3010
-0.3010 GRATE </s> -0.3010
-0.3010 GREEN </s> -0.3010
-0.3010 GREY </s> -0.3010
-0.3010 GROAN </s> -0.3010
-0.3010 GROOVY </s> -0.3010
-0.3010 GROUND </s> -0.3010
-0.3010 GROUP </s> -0.3010
-0.3010 GRUESOME </s> -0.3010
-0.3010 GUARANTEE </s> -0.3010
-0.3010 GUIDE </s> -0.3010
-0.3010 GUN </s> -0.3010
-0.3010 HAIR </s> -0.3010
-0.3010 HALLOWED </s> -0.3010
-0.3010 HALTING </s> -0.3010
-0.3010 HAMMER </s> -0.3010
-0.3010 HAND </s> -0.3010
-0.3010 HANDS </s> -0.3010
-0.3010 HANDSOMELY </s> -0.3010
-0.3010 HANDY </s> -0.3010
-0.3010 HANG </s> -0.3010
-0.3010 HANGING </s> -0.3010
-0.3010 HAPPEN </s> -0.3010
-0.3010 HARASS </s> -0.3010
-0.3010 HARBOR </s> -0.3010
-0.3010 HARD </s> -0.3010
-0.3010 HARM </s> -0.3010
-0.3010 HARMONIOUS </s> -0.3010
-0.3010 HARSH </s> -0.3010
-0.3010 HAT </s> -0.3010
-0.3010 HATEFUL </s> -0.3010
-0.3010 HAUNT </s> -0.3010
-0.3010 HEAD </s> -0.3010
-0.3010 HEAL </s> -0.3010
-0.3010 HEALTHY </s> -0.3010
-0.3010 HEAP </s> -0.3010
-0.3010 HEARTBREAKING </s> -0.3010
-0.3010 HEAT </s> -0.3010
-0.3010 HELPFUL </s> -0.3010
-0.3010 HIGH </s> -0.3010
-0.3010 HIGH-PITCHED </s> -0.3010
-0.3010 HIGHFALUTIN </s> -0.3010
-0.3010 HILARIOUS </s> -0.3010
-0.3010 HILL </s> -0.3010
-0.3010 HOBBIES </s> -0.3010
-0.3010 HOLE </s> -0.3010
-0.3010 HOLISTIC </s> -0.3010
-0.3010 HOMELY </s> -0.3010
-0.3010 HONEY </s> -0.3010
-0.3010 HONORABLE </s> -0.3010
-0.3010 HOOK </s> -0.3010
-0.3010 HOPE </s> -0.3010
-0.3010 HORRIBLE </s> -0.3010
-0.3010 HORSE </s> -0.3010
-0.3010 HORSES </s> -0.3010
-0.3010 HOSPITABLE </s> -0.3010
-0.3010 HOUSE </s> -0.3010
-0.3010 HOUSES </s> -0.3010
-0.3010 HUMOR </s> -0.3010
-0.3010 HUNGRY </s> -0.3010
-0.3010 HURRY </s> -0.3010
-0.3010 HYSTERICAL </s> -0.3010
-0.3010 ICY </s> -0.3010
-0.3010 IDEA </s> -0.3010
-0.3010 IDENTIFY </s> -0.3010
-0.3010 IGNORANT </s> -0.3010
-0.3010 ILLUSTRIOUS </s> -0.3010
-0.3010 IMPOLITE </s> -0.3010
-0.3010 IMPORTANT </s> -0.3010
-0.3010 IMPROVE </s> -0.3010
-0.3010 IMPULSE </s> -0.3010
-0.3010 INCOME </s> -0.3010
-0.3010 INCOMPETENT </s> -0.3010
-0.3010 INCREDIBLE </s> -0.3010
-0.3010 INDUSTRIOUS </s> -0.3010
-0.3010 INDUSTRY </s> -0.3010
-0.3010 INFAMOUS </s> -0.3010
-0.3010 INJURE </s> -0.3010
-0.3010 INNATE </s> -0.3010
-0.3010 INSECT </s> -0.3010
-0.3010 INSIDIOUS </s> -0.3010
-0.3010 INTEND </s> -0.3010
-0.3010 INTERNAL </s> -0.3010
-0.3010 INTRODUCE </s> -0.3010
-0.3010 INVENTION </s> -0.3010
-0.3010 INVITE </s> -0.3010
-0.3010 IRRITATING </s> -0.3010
-0.3010 ITCHY </s> -0.3010
-0.3010 JAIL </s> -0.3010
-0.3010 JAR </s> -0.3010
-0.3010 JEALOUS </s> -0.3010
-0.3010 JELLYFISH </s> -0.3010
-0.3010 JITTERY </s> -0.3010
-0.3010 JOIN </s> -0.3010
-0.3010 JOKE </s> -0.3010
-0.3010 JOLLY </s> -0.3010
-0.3010 JUDGE </s> -0.3010
-0.3010 JUDICIOUS </s> -0.3010
-0.3010 JUMBLED </s> -0.3010
-0.3010 JUMP </s> -0.3010
-0.3010 KEEN </s> -0.3010
-0.3010 KETTLE </s> -0.3010
-0.3010 KICK </s> -0.3010
-0.3010 KILL </s> -0.3010
-0.3010 KITTY </s> -0.3010
-0.3010 KNIFE </s> -0.3010
-0.3010 KNIT </s> -0.3010
-0.3010 KNOT </s> -0.3010
-0.3010 KNOTTY </s> -0.3010
-0.3010 KNOWING </s> -0.3010
-0.3010 KNOWLEDGEABLE </s> -0.3010
-0.3010 LAMP </s> -0.3010
-0.3010 LANGUAGE </s> -0.3010
-0.3010 LAST </s> -0.3010
-0.3010 LAVISH </s> -0.3010
-0.3010 LEATHER </s> -0.3010
-0.3010 LEFT </s> -0.3010
-0.3010 LETTER </s> -0.3010
-0.3010 LEVEL </s> -0.3010
-0.3010 LICENSE </s> -0.3010
-0.3010 LIMPING </s> -0.3010
-0.3010 LIP </s> -0.3010
-0.3010 LIVELY </s> -0.3010
-0.3010 LOAF </s> -0.3010
-0.3010 LOCK </s> -0.3010
-0.3010 LOCKET </s> -0.3010
-0.3010 LONELY </s> -0.3010
-0.3010 LOOK </s> -0.3010
-0.3010 LOPSIDED </s> -0.3010
-0.3010 LOSS </s> -0.3010
-0.3010 LOUTISH </s> -0.3010
-0.3010 LOVE </s> -0.3010
-0.3010 LOVELY </s> -0.3010
-0.3010 LOW </s> -0.3010
-0.3010 LUXURIANT </s> -0.3010
-0.3010 LYRICAL </s> -0.3010
-0.3010 MADLY </s> -0.3010
-0.3010 MAGENTA </s> -0.3010
-0.3010 MAGNIFICENT </s> -0.3010
-0.3010 MAID </s> -0.3010
-0.3010 MAILBOX </s> -0.3010
-0.3010 MAJESTIC </s> -0.3010
-0.3010 MAMMOTH </s> -0.3010
-0.3010 MANY </s> -0.3010
-0.3010 MARBLE </s> -0.3010
-0.3010 MARK </s> -0.3010
-0.3010 MARKET </s> -0.3010
-0.3010 MARRY </s> -0.3010
-0.3010 MATCH </s> -0.3010
-0.3010 MATE </s> -0.3010
-0.3010 MATURE </s> -0.3010
-0.3010 MEASURE </s> -0.3010
-0.3010 MEDICAL </s> -0.3010
-0.3010 MELTED </s> -0.3010
-0.3010 MERCIFUL </s> -0.3010
-0.3010 MESSY </s> -0.3010
-0.3010 METAL </s> -0.3010
-0.3010 MICE </s> -0.3010
-0.3010 MIDDLE </s> -0.3010
-0.3010 MILITARY </s> -0.3010
-0.3010 MILK </s> -0.3010
-0.3010 MINE </s> -0.3010
-0.3010 MINION </s> -0.3010
-0.3010 MINISTER </s> -0.3010
-0.3010 MISCREANT </s> -0.3010
-0.3010 MOANING </s> -0.3010
-0.3010 MOM </s> -0.3010
-0.3010 MONEY </s> -0.3010
-0.3010 MOTHER </s> -0.3010
-0.3010 MOUNTAIN </s> -0.3010
-0.3010 MOVE </s> -0.3010
-0.3010 MUNDANE </s> -0.3010
-0.3010 MUSCLE </s> -0.3010
-0.3010 NAIVE </s> -0.3010
-0.3010 NAME </s> -0.3010
-0.3010 NATION </s> -0.3010
-0.3010 NEAT </s> -0.3010
-0.3010 NEBULOUS </s> -0.3010
-0.3010 NECESSARY </s> -0.3010
-0.3010 NEED </s> -0.3010
-0.3010 NEEDY </s> -0.3010
-0.3010 NEIGHBORLY </s> -0.3010
-0.3010 NEXT </s> -0.3010
-0.3010 NIGHT </s> -0.3010
-0.3010 NOISE </s> -0.3010
-0.3010 NONDESCRIPT </s> -0.3010
-0.3010 NONSTOP </s> -0.3010
-0.3010 NORMAL </s> -0.3010
-0.3010 NORTH </s> -0.3010
-0.3010 NOSE </s> -0.3010
-0.3010 NOSTALGIC </s> -0.3010
-0.3010 NOTICE </s> -0.3010
-0.3010 NUMBER </s> -0.3010
-0.3010 NUMBERLESS </s> -0.3010
-0.3010 NUTTY </s> -0.3010
-0.3010 OBEDIENT </s> -0.3010
-0.3010 OBNOXIOUS </s> -0.3010
-0.3010 OBSERVANT </s> -0.3010
-0.3010 OCEANIC </s> -0.3010
-0.3010 OFFEND </s> -0.3010
-0.3010 OFFER </s> -0.3010
-0.3010 OLD-FASHIONED </s> -0.3010
-0.3010 ONE </s> -0.3010
-0.3010 OPEN </s> -0.3010
-0.3010 OPTIMAL </s> -0.3010
-0.3010 ORANGE </s> -0.3010
-0.3010 ORANGES </s> -0.3010
-0.3010 OVAL </s> -0.3010
-0.3010 OVERFLOW </s> -0.3010
-0.3010 OVERT </s> -0.3010
-0.3010 OWE </s> -0.3010
-0.3010 OWN </s> -0.3010
-0.3010 PACK </s> -0.3010
-0.3010 PAGE </s> -0.3010
-0.3010 PAINFUL </s> -0.3010
-0.3010 PAINSTAKING </s> -0.3010
-0.3010 PALE </s> -0.3010
-0.3010 PANCAKE </s> -0.3010
-0.3010 PANORAMIC </s> -0.3010
-0.3010 PARALLEL </s> -0.3010
-0.3010 PARK </s> -0.3010
-0.3010 PART </s> -0.3010
-0.3010 PARTNER </s> -0.3010
-0.3010 PASS </s> -0.3010
-0.3010 PAST </s> -0.3010
-0.3010 PEACE </s> -0.3010
-0.3010 PEACEFUL </s> -0.3010
-0.3010 PEDAL </s> -0.3010
-0.3010 PERFECT </s> -0.3010
-0.3010 PERIODIC </s> -0.3010
-0.3010 PERSON </s> -0.3010
-0.3010 PEST </s> -0.3010
-0.3010 PET </s> -0.3010
-0.3010 PETITE </s> -0.3010
-0.3010 PETS </s> -0.3010
-0.3010 PHONE </s> -0.3010
-0.3010 PHYSICAL </s> -0.3010
-0.3010 PIE </s> -0.3010
-0.3010 PIG </s> -0.3010
-0.3010 PINE </s> -0.3010
-0.3010 PIZZAS </s> -0.3010
-0.3010 PLAN </s> -0.3010
-0.3010 PLANT </s> -0.3010
-0.3010 PLANTS </s> -0.3010
-0.3010 PLAUSIBLE </s> -0.3010
-0.3010 PLAYGROUND </s> -0.3010
-0.3010 PLOT </s> -0.3010
-0.3010 POCKET </s> -0.3010
-0.3010 POINT </s> -0.3010
-0.3010 POISED </s> -0.3010
-0.3010 POPCORN </s> -0.3010
-0.3010 POSITION </s> -0.3010
-0.3010 POST </s> -0.3010
-0.3010 POT </s> -0.3010
-0.3010 POUR </s> -0.3010
-0.3010 POWDER </s> -0.3010
-0.3010 PRECEDE </s> -0.3010
-0.3010 PREPARE </s> -0.3010
-0.3010 PRESENT </s> -0.3010
-0.3010 PRESERVE </s> -0.3010
-0.3010 PRETEND </s> -0.3010
-0.3010 PREVENT </s> -0.3010
-0.3010 PRODUCE </s> -0.3010
-0.3010 PROGRAM </s> -0.3010
-0.3010 PROPERTY </s> -0.3010
-0.3010 PROTECT </s> -0.3010
-0.3010 PUBLIC </s> -0.3010
-0.3010 PUNCH </s> -0.3010
-0.3010 PUNCTURE </s> -0.3010
-0.3010 PUNISH </s> -0.3010
-0.3010 PUNISHMENT </s> -0.3010
-0.3010 PUNY </s> -0.3010
-0.3010 PUSH </s> -0.3010
-0.3010 PUSHY </s> -0.3010
-0.3010 PUZZLED </s> -0.3010
-0.3010 PUZZLING </s> -0.3010
-0.3010 QUACK </s> -0.3010
-0.3010 QUAINT </s> -0.3010
-0.3010 QUARRELSOME </s> -0.3010
-0.3010 QUARTER </s> -0.3010
-0.3010 QUARTZ </s> -0.3010
-0.3010 QUEEN </s> -0.3010
-0.3010 QUEUE </s> -0.3010
-0.3010 QUICKEST </s> -0.3010
-0.3010 QUILT </s> -0.3010
-0.3010 QUINCE </s> -0.3010
-0.3010 QUIXOTIC </s> -0.3010
-0.3010 QUIZZICAL </s> -0.3010
-0.3010 RADIATE </s> -0.3010
-0.3010 RAILWAY </s> -0.3010
-0.3010 RAIN </s> -0.3010
-0.3010 RAISE </s> -0.3010
-0.3010 RAMBUNCTIOUS </s> -0.3010
-0.3010 RAMPANT </s> -0.3010
-0.3010 RARE </s> -0.3010
-0.3010 RASPY </s> -0.3010
-0.3010 RAT </s> -0.3010
-0.3010 RATTY </s> -0.3010
-0.3010 REAL </s> -0.3010
-0.3010 RECEIVE </s> -0.3010
-0.3010 RECEPTIVE </s> -0.3010
-0.3010 RECESS </s> -0.3010
-0.3010 RECONDITE </s> -0.3010
-0.3010 RECORD </s> -0.3010
-0.3010 REDUNDANT </s> -0.3010
-0.3010 REFLECTIVE </s> -0.3010
-0.3010 REGULAR </s> -0.3010
-0.3010 RELAX </s> -0.3010
-0.3010 RELEASE </s> -0.3010
-0.3010 RELIEVED </s> -0.3010
-0.3010 RELY </s> -0.3010
-0.3010 REMARKABLE </s> -0.3010
-0.3010 REMOVE </s> -0.3010
-0.3010 REPEAT </s> -0.3010
-0.3010 REPRESENTATIVE </s> -0.3010
-0.3010 REPRODUCE </s> -0.3010
-0.3010 REQUEST </s> -0.3010
-0.3010 RESCUE </s> -0.3010
-0.3010 RESPONSIBLE </s> -0.3010
-0.3010 REST </s> -0.3010
-0.3010 RETIRE </s> -0.3010
-0.3010 RICE </s> -0.3010
-0.3010 RIFLE </s> -0.3010
-0.3010 RINGS </s> -0.3010
-0.3010 RIPE </s> -0.3010
-0.3010 RITZY </s> -0.3010
-0.3010 ROASTED </s> -0.3010
-0.3010 ROB </s> -0.3010
-0.3010 ROCK </s> -0.3010
-0.3010 ROLL </s> -0.3010
-0.3010 ROMANTIC </s> -0.3010
-0.3010 ROSE </s> -0.3010
-0.3010 ROT </s> -0.3010
-0.3010 ROYAL </s> -0.3010
-0.3010 RUDE </s> -0.3010
-0.3010 RULE </s> -0.3010
-0.3010 SALTY </s> -0.3010
-0.3010 SAME </s> -0.3010
-0.3010 SAND </s> -0.3010
-0.3010 SATISFY </s> -0.3010
-0.3010 SATISFYING </s> -0.3010
-0.3010 SAVE </s> -0.3010
-0.3010 SAW </s> -0.3010
-0.3010 SCARCE </s> -0.3010
-0.3010 SCARECROW </s> -0.3010
-0.3010 SCARED </s> -0.3010
-0.3010 SCARF </s> -0.3010
-0.3010 SCENT </s> -0.3010
-0.3010 SCIENTIFIC </s> -0.3010
-0.3010 SCISSORS </s> -0.3010
-0.3010 SCREECHING </s> -0.3010
-0.3010 SCRUB </s> -0.3010
-0.3010 SEASHORE </s> -0.3010
-0.3010 SEED </s> -0.3010
-0.3010 SELECTIVE </s> -0.3010
-0.3010 SELFISH </s> -0.3010
-0.3010 SEPARATE </s> -0.3010
-0.3010 SETTLE </s> -0.3010
-0.3010 SHALLOW </s> -0.3010
-0.3010 SHARP </s> -0.3010
-0.3010 SHEET </s> -0.3010
-0.3010 SHELF </s> -0.3010
-0.3010 SHELTER </s> -0.3010
-0.3010 SHIRT </s> -0.3010
-0.3010 SHIVER </s> -0.3010
-0.3010 SHOCK </s> -0.3010
-0.3010 SHOP </s> -0.3010
-0.3010 SHOW </s> -0.3010
-0.3010 SHY </s> -0.3010
-0.3010 SIGN </s> -0.3010
-0.3010 SILENT </s> -0.3010
-0.3010 SINK </s> -0.3010
-0.3010 SKATE </s> -0.3010
-0.3010 SKI </s> -0.3010
-0.3010 SKIP </s> -0.3010
-0.3010 SLEEP </s> -0.3010
-0.3010 SLEET </s> -0.3010
-0.3010 SLIM </s> -0.3010
-0.3010 SLOPPY </s> -0.3010
-0.3010 SLOW </s> -0.3010
-0.3010 SMALL </s> -0.3010
-0.3010 SMASH </s> -0.3010
-0.3010 SMILE </s> -0.3010
-0.3010 SMILING </s> -0.3010
-0.3010 SMOGGY </s> -0.3010
-0.3010 SMOKE </s> -0.3010
-0.3010 SNAKE </s> -0.3010
-0.3010 SNAKES </s> -0.3010
-0.3010 SNATCH </s> -0.3010
-0.3010 SNEEZE </s> -0.3010
-0.3010 SNOBBISH </s> -0.3010
-0.3010 SNOW </s> -0.3010
-0.3010 SOCIETY </s> -0.3010
-0.3010 SODA </s> -0.3010
-0.3010 SOFA </s> -0.3010
-0.3010 SOMBER </s> -0.3010
-0.3010 SON </s> -0.3010
-0.3010 SONGS </s> -0.3010
-0.3010 SOOTHE </s> -0.3010
-0.3010 SORE </s> -0.3010
-0.3010 SORT </s> -0.3010
-0.3010 SOUND </s> -0.3010
-0.3010 SPADE </s> -0.3010
-0.3010 SPARE </s> -0.3010
-0.3010 SPARK </s> -0.3010
-0.3010 SPARKLING </s> -0.3010
-0.3010 SPECTACULAR </s> -0.3010
-0.3010 SPIFFY </s> -0.3010
-0.3010 SPIRITUAL </s> -0.3010
-0.3010 SPITEFUL </s> -0.3010
-0.3010 SPLENDID </s> -0.3010
-0.3010 SPONGE </s> -0.3010
-0.3010 SPOON </s> -0.3010
-0.3010 SPOT </s> -0.3010
-0.3010 SPOTTED </s> -0.3010
-0.3010 SPRAY </s> -0.3010
-0.3010 SPROUT </s> -0.3010
-0.3010 SPY </s> -0.3010
-0.3010 SQUARE </s> -0.3010
-0.3010 SQUASH </s> -0.3010
-0.3010 SQUEAL </s> -0.3010
-0.3010 STAGE </s> -0.3010
-0.3010 STAIN </s> -0.3010
-0.3010 STAKING </s> -0.3010
-0.3010 STALE </s> -0.3010
-0.3010 STAMP </s> -0.3010
-0.3010 STANDING </s> -0.3010
-0.3010 STARE </s> -0.3010
-0.3010 START </s> -0.3010
-0.3010 STATION </s> -0.3010
-0.3010 STEADFAST </s> -0.3010
-0.3010 STEAM </s> -0.3010
-0.3010 STEEP </s> -0.3010
-0.3010 STEW </s> -0.3010
-0.3010 STICK </s> -0.3010
-0.3010 STIFF </s> -0.3010
-0.3010 STIMULATING </s> -0.3010
-0.3010 STIR </s> -0.3010
-0.3010 STITCH </s> -0.3010
-0.3010 STOMACH </s> -0.3010
-0.3010 STOP </s> -0.3010
-0.3010 STORE </s> -0.3010
-0.3010 STOVE </s> -0.3010
-0.3010 STRAIGHT </s> -0.3010
-0.3010 STRANGE </s> -0.3010
-0.3010 STRAP </s> -0.3010
-0.3010 STRAW </s> -0.3010
-0.3010 STRING </s> -0.3010
-0.3010 STROKE </s> -0.3010
-0.3010 STUFF </s> -0.3010
-0.3010 STUPENDOUS </s> -0.3010
-0.3010 SUBDUED </s> -0.3010
-0.3010 SUBSEQUENT </s> -0.3010
-0.3010 SUBSTANCE </s> -0.3010
-0.3010 SUBSTANTIAL </s> -0.3010
-0.3010 SUGAR </s> -0.3010
-0.3010 SUGGEST </s> -0.3010
-0.3010 SUGGESTION </s> -0.3010
-0.3010 SUIT </s> -0.3010
-0.3010 SULKY </s> -0.3010
-0.3010 SUPER </s> -0.3010
-0.3010 SUPERB </s> -0.3010
-0.3010 SUPPORT </s> -0.3010
-0.3010 SUSPEND </s> -0.3010
-0.3010 SWEATER </s> -0.3010
-0.3010 SWELTERING </s> -0.3010
-0.3010 SWIFT </s> -0.3010
-0.3010 SWIM </s> -0.3010
-0.3010 SYNONYMOUS </s> -0.3010
-0.3010 TACIT </s> -0.3010
-0.3010 TAIL </s> -0.3010
-0.3010 TALK </s> -0.3010
-0.3010 TAN </s> -0.3010
-0.3010 TAP </s> -0.3010
-0.3010 TART </s> -0.3010
-0.3010 TASTEFUL </s> -0.3010
-0.3010 TASTY </s> -0.3010
-0.3010 TEAM </s> -0.3010
-0.3010 TEETH </s> -0.3010
-0.3010 TELLING </s> -0.3010
-0.3010 TEMPORARY </s> -0.3010
-0.3010 TEMPT </s> -0.3010
-0.3010 TENDENCY </s> -0.3010
-0.3010 TENT </s> -0.3010
-0.3010 TERRIBLE </s> -0.3010
-0.3010 TERRIFIC </s> -0.3010
-0.3010 TEST </s> -0.3010
-0.3010 TEXTURE </s> -0.3010
-0.3010 THEORY </s> -0.3010
-0.3010 THERAPEUTIC </s> -0.3010
-0.3010 THIRSTY </s> -0.3010
-0.3010 THOUGHT </s> -0.3010
-0.3010 THRILL </s> -0.3010
-0.3010 THRONE </s> -0.3010
-0.3010 TICKET </s> -0.3010
-0.3010 TIE </s> -0.3010
-0.3010 TIME </s> -0.3010
-0.3010 TOE </s> -0.3010
-0.3010 TOES </s> -0.3010
-0.3010 TOOTHBRUSH </s> -0.3010
-0.3010 TOOTHPASTE </s> -0.3010
-0.3010 TOP </s> -0.3010
-0.3010 TOUGH </s> -0.3010
-0.3010 TOUR </s> -0.3010
-0.3010 TOWN </s> -0.3010
-0.3010 TRACE </s> -0.3010
-0.3010 TRAIN </s> -0.3010
-0.3010 TRANQUIL </s> -0.3010
-0.3010 TRANSPORT </s> -0.3010
-0.3010 TREES </s> -0.3010
-0.3010 TREMBLE </s> -0.3010
-0.3010 TROUSERS </s> -0.3010
-0.3010 TUG </s> -0.3010
-0.3010 TURKEY </s> -0.3010
-0.3010 TURN </s> -0.3010
-0.3010 TWO </s> -0.3010
-0.3010 TYPICAL </s> -0.3010
-0.3010 UNADVISED </s> -0.3010
-0.3010 UNBIASED </s> -0.3010
-0.3010 UNCLE </s> -0.3010
-0.3010 UNCOVERED </s> -0.3010
-0.3010 UNDERSTOOD </s> -0.3010
-0.3010 UNEVEN </s> -0.3010
-0.3010 UNHEALTHY </s> -0.3010
-0.3010 UNIT </s> -0.3010
-0.3010 UNITE </s> -0.3010
-0.3010 UNKNOWN </s> -0.3010
-0.3010 UNNATURAL </s> -0.3010
-0.3010 UNTIDY </s> -0.3010
-0.3010 UPPITY </s> -0.3010
-0.3010 UPSET </s> -0.3010
-0.3010 USE </s> -0.3010
-0.3010 UTOPIAN </s> -0.3010
-0.3010 UTTER </s> -0.3010
-0.3010 UTTERMOST </s> -0.3010
-0.3010 VAGABOND </s> -0.3010
-0.3010 VAN </s> -0.3010
-0.3010 VANISH </s> -0.3010
-0.3010 VAST </s> -0.3010
-0.3010 VEIL </s> -0.3010
-0.3010 VENGEFUL </s> -0.3010
-0.3010 VERDANT </s> -0.3010
-0.3010 VIGOROUS </s> -0.3010
-0.3010 VISITOR </s> -0.3010
-0.3010 VIVACIOUS </s> -0.3010
-0.3010 WACKY </s> -0.3010
-0.3010 WAIL </s> -0.3010
-0.3010 WAIT </s> -0.3010
-0.3010 WALL </s> -0.3010
-0.3010 WANDERING </s> -0.3010
-0.3010 WANT </s> -0.3010
-0.3010 WANTING </s> -0.3010
-0.3010 WARY </s> -0.3010
-0.3010 WASH </s> -0.3010
-0.3010 WASTE </s> -0.3010
-0.3010 WASTEFUL </s> -0.3010
-0.3010 WAY </s> -0.3010
-0.3010 WEAK </s> -0.3010
-0.3010 WEATHER </s> -0.3010
-0.3010 WEIGH </s> -0.3010
-0.3010 WEIGHT </s> -0.3010
-0.3010 WHEEL </s> -0.3010
-0.3010 WHIP </s> -0.3010
-0.3010 WHIRL </s> -0.3010
-0.3010 WHISPER </s> -0.3010
-0.3010 WHISPERING </s> -0.3010
-0.3010 WHITE </s> -0.3010
-0.3010 WIGGLY </s> -0.3010
-0.3010 WIND </s> -0.3010
-0.3010 WINDOW </s> -0.3010
-0.3010 WING </s> -0.3010
-0.3010 WIPE </s> -0.3010
-0.3010 WIRE </s> -0.3010
-0.3010 WISH </s> -0.3010
-0.3010 WITTY </s> -0.3010
-0.3010 WOEBEGONE </s> -0.3010
-0.3010 WOMAN </s> -0.3010
-0.3010 WONDER </s> -0.3010
-0.3010 WONDERFUL </s> -0.3010
-0.3010 WOOL </s> -0.3010
-0.3010 WOOZY </s> -0.3010
-0.3010 WORD </s> -0.3010
-0.3010 WORM </s> -0.3010
-0.3010 WORRY </s> -0.3010
-0.3010 WORTHLESS </s> -0.3010
-0.3010 WRECK </s> -0.3010
-0.3010 WRENCH </s> -0.3010
-0.3010 WRESTLE </s> -0.3010
-0.3010 WRETCHED </s> -0.3010
-0.3010 WRITING </s> -0.3010
-0.3010 WRY </s> -0.3010
-0.3010 YAM </s> -0.3010
-0.3010 YARD </s> -0.3010
-0.3010 YELLOW </s> -0.3010
-0.3010 YOUNG </s> -0.3010
-0.3010 ZEBRA </s> -0.3010
-0.3010 ZIPPER </s> -0.3010
-0.3010 ZIPPY </s> -0.3010
-0.3010 ZOOM </s> -0.3010

\3-grams:
-0.3010 <s> ABANDONED </s>
-0.3010 <s> ABERRANT </s>
-0.3010 <s> ABHORRENT </s>
-0.3010 <s> ABLE </s>
-0.3010 <s> ABOUNDING </s>
-0.3010 <s> ABSORBED </s>
-0.3010 <s> ABSORBING </s>
-0.3010 <s> ABSTRACTED </s>
-0.3010 <s> ABSURD </s>
-0.3010 <s> ABUNDANT </s>
-0.3010 <s> ACCEPTABLE </s>
-0.3010 <s> ACCURATE </s>
-0.3010 <s> ACID </s>
-0.3010 <s> ACOUSTIC </s>
-0.3010 <s> ACRID </s>
-0.3010 <s> ADAMANT </s>
-0.3010 <s> ADDITION </s>
-0.3010 <s> ADHESIVE </s>
-0.3010 <s> ADJUSTMENT </s>
-0.3010 <s> ADMIRE </s>
-0.3010 <s> ADMIT </s>
-0.3010 <s> ADVERTISEMENT </s>
-0.3010 <s> ADVISE </s>
-0.3010 <s> AFFORD </s>
-0.3010 <s> AFTERMATH </s>
-0.3010 <s> AGONIZING </s>
-0.3010 <s> AHEAD </s>
-0.3010 <s> AIRPLANE </s>
-0.3010 <s> AJAR </s>
-0.3010 <s> ALERT </s>
-0.3010 <s> ALIVE </s>
-0.3010 <s> ALLOW </s>
-0.3010 <s> ALOOF </s>
-0.3010 <s> AMAZING </s>
-0.3010 <s> AMBIGUOUS </s>
-0.3010 <s> AMBITIOUS </s>
-0.3010 <s> AMUCK </s>
-0.3010 <s> AMUSE </s>
-0.3010 <s> AMUSED </s>
-0.3010 <s> ANGER </s>
-0.3010 <s> ANGRY </s>
-0.3010 <s> ANIMAL </s>
-0.3010 <s> ANIMATED </s>
-0.3010 <s> ANNOY </s>
-0.3010 <s> ANNOYING </s>
-0.3010 <s> APATHETIC </s>
-0.3010 <s> APOLOGISE </s>
-0.3010 <s> APPAREL </s>
-0.3010 <s> APPRECIATE </s>
-0.3010 <s> ARGUMENT </s>
-0.3010 <s> ARM </s>
-0.3010 <s> ARMY </s>
-0.3010 <s> AROMATIC </s>
-0.3010 <s> ARRIVE </s>
-0.3010 <s> ART </s>
-0.3010 <s> ASK </s>
-0.3010 <s> ASSORTED </s>
-0.3010 <s> ASTONISHING </s>
-0.3010 <s> ATTACH </s>
-0.3010 <s> ATTACK </s>
-0.3010 <s> ATTEND </s>
-0.3010 <s> ATTRACT </s>
-0.3010 <s> AUTOMATIC </s>
-0.3010 <s> AVOID </s>
-0.3010 <s> AXIOMATIC </s>
-0.3010 <s> BABY </s>
-0.3010 <s> BACK </s>
-0.3010 <s> BAD </s>
-0.3010 <s> BAIT </s>
-0.3010 <s> BAKE </s>
-0.3010 <s> BALANCE </s>
-0.3010 <s> BANG </s>
-0.3010 <s> BASHFUL </s>
-0.3010 <s> BASIN </s>
-0.3010 <s> BASKET </s>
-0.3010 <s> BASKETBALL </s>
-0.3010 <s> BATTLE </s>
-0.3010 <s> BAWDY </s>
-0.3010 <s> BEAUTIFUL </s>
-0.3010 <s> BED </s>
-0.3010 <s> BEDS </s>
-0.3010 <s> BEEF </s>
-0.3010 <s> BEFITTING </s>
-0.3010 <s> BEG </s>
-0.3010 <s> BELL </s>
-0.3010 <s> BELLIGERENT </s>
-0.3010 <s> BELLS </s>
-0.3010 <s> BELONG </s>
-0.3010 <s> BERSERK </s>
-0.3010 <s> BETTER </s>
-0.3010 <s> BIRTHDAY </s>
-0.3010 <s> BITE-SIZED </s>
-0.3010 <s> BLACK </s>
-0.3010 <s> BLADE </s>
-0.3010 <s> BLEACH </s>
-0.3010 <s> BLESS </s>
-0.3010 <s> BLOODY </s>
-0.3010 <s> BLUSHING </s>
-0.3010 <s> BOIL </s>
-0.3010 <s> BOLT </s>
-0.3010 <s> BOMB </s>
-0.3010 <s> BOOK </s>
-0.3010 <s> BOORISH </s>
-0.3010 <s> BOOT </s>
-0.3010 <s> BORED </s>
-0.3010 <s> BORING </s>
-0.3010 <s> BOTTLE </s>
-0.3010 <s> BOUNCY </s>
-0.3010 <s> BOUNDARY </s>
-0.3010 <s> BOX </s>
-0.3010 <s> BRANCH </s>
-0.3010 <s> BRASH </s>
-0.3010 <s> BRASS </s>
-0.3010 <s> BREATH </s>
-0.3010 <s> BRIGHT </s>
-0.3010 <s> BROAD </s>
-0.3010 <s> BROKEN </s>
-0.3010 <s> BUCKET </s>
-0.3010 <s> BUILDING </s>
-0.3010 <s> BURST </s>
-0.3010 <s> BUTTER </s>
-0.3010 <s> CABLE </s>
-0.3010 <s> CALCULATE </s>
-0.3010 <s> CALCULATING </s>
-0.3010 <s> CALL </s>
-0.3010 <s> CALLOUS </s>
-0.3010 <s> CAMERA </s>
-0.3010 <s> CAMP </s>
-0.3010 <s> CANVAS </s>
-0.3010 <s> CAP </s>
-0.3010 <s> CAPABLE </s>
-0.3010 <s> CAPRICIOUS </s>
-0.3010 <s> CAR </s>
-0.3010 <s> CARD </s>
-0.3010 <s> CARE </s>
-0.3010 <s> CARRIAGE </s>
-0.3010 <s> CARRY </s>
-0.3010 <s> CARS </s>
-0.3010 <s> CARVE </s>
-0.3010 <s> CATS </s>
-0.3010 <s> CELLAR </s>
-0.3010 <s> CERTAIN </s>
-0.3010 <s> CHARMING </s>
-0.3010 <s> CHEAP </s>
-0.3010 <s> CHEESE </s>
-0.3010 <s> CHERRIES </s>
-0.3010 <s> CHERRY </s>
-0.3010 <s> CHESS </s>
-0.3010 <s> CHEW </s>
-0.3010 <s> CHICKENS </s>
-0.3010 <s> CHILDLIKE </s>
-0.3010 <s> CHILDREN </s>
-0.3010 <s> CHIN </s>
-0.3010 <s> CHIVALROUS </s>
-0.3010 <s> CHUBBY </s>
-0.3010 <s> CLAIM </s>
-0.3010 <s> CLASS </s>
-0.3010 <s> CLEAN </s>
-0.3010 <s> CLEAR </s>
-0.3010 <s> CLEVER </s>
-0.3010 <s> CLOSED </s>
-0.3010 <s> CLOTH </s>
-0.3010 <s> CLOUDY </s>
-0.3010 <s> COBWEB </s>
-0.3010 <s> COIL </s>
-0.3010 <s> COLOR </s>
-0.3010 <s> COMB </s>
-0.3010 <s> COMBATIVE </s>
-0.3010 <s> COMMAND </s>
-0.3010 <s> COMPANY </s>
-0.3010 <s> COMPETITION </s>
-0.3010 <s> CONCENTRATE </s>
-0.3010 <s> CONFESS </s>
-0.3010 <s> CONSCIOUS </s>
-0.3010 <s> CONSIDER </s>
-0.3010 <s> CONSIST </s>
-0.3010 <s> COOING </s>
-0.3010 <s> COOPERATIVE </s>
-0.3010 <s> COPY </s>
-0.3010 <s> CORN </s>
-0.3010 <s> COUGH </s>
-0.3010 <s> COVER </s>
-0.3010 <s> COW </s>
-0.3010 <s> COWARDLY </s>
-0.3010 <s> CRACK </s>
-0.3010 <s> CRAYON </s>
-0.3010 <s> CRAZY </s>
-0.3010 <s> CREAM </s>
-0.3010 <s> CREATOR </s>
-0.3010 <s> CREATURE </s>
-0.3010 <s> CREEPY </s>
-0.3010 <s> CRIB </s>
-0.3010 <s> CROW </s>
-0.3010 <s> CROWD </s>
-0.3010 <s> CRUSH </s>
-0.3010 <s> CRY </s>
-0.3010 <s> CUB </s>
-0.3010 <s> CURIOUS </s>
-0.3010 <s> CURL </s>
-0.3010 <s> CURRENT </s>
-0.3010 <s> CUSHION </s>
-0.3010 <s> CUTE </s>
-0.3010 <s> DAMAGE </s>
-0.3010 <s> DAMAGING </s>
-0.3010 <s> DAUGHTER </s>
-0.3010 <s> DAY </s>
-0.3010 <s> DAZZLING </s>
-0.3010 <s> DEAD </s>
-0.3010 <s> DEADPAN </s>
-0.3010 <s> DEATH </s>
-0.3010 <s> DECAY </s>
-0.3010 <s> DECISIVE </s>
-0.3010 <s> DECORATE </s>
-0.3010 <s> DEFEATED </s>
-0.3010 <s> DELAY </s>
-0.3010 <s> DELICATE </s>
-0.3010 <s> DELICIOUS </s>
-0.3010 <s> DELIGHT </s>
-0.3010 <s> DELIRIOUS </s>
-0.3010 <s> DELIVER </s>
-0.3010 <s> DEPENDENT </s>
-0.3010 <s> DESCRIPTIVE </s>
-0.3010 <s> DESERTED </s>
-0.3010 <s> DESERVE </s>
-0.3010 <s> DESIRE </s>
-0.3010 <s> DESK </s>
-0.3010 <s> DESTROY </s>
-0.3010 <s> DESTRUCTION </s>
-0.3010 <s> DETAIL </s>
-0.3010 <s> DETAILED </s>
-0.3010 <s> DETECT </s>
-0.3010 <s> DEVILISH </s>
-0.3010 <s> DIFFERENT </s>
-0.3010 <s> DIFFICULT </s>
-0.3010 <s> DILIGENT </s>
-0.3010 <s> DIME </s>
-0.3010 <s> DINOSAURS </s>
-0.3010 <s> DIREFUL </s>
-0.3010 <s> DISAGREEABLE </s>
-0.3010 <s> DISAPPEAR </s>
-0.3010 <s> DISARM </s>
-0.3010 <s> DISASTROUS </s>
-0.3010 <s> DISCOVER </s>
-0.3010 <s> DISGUSTING </s>
-0.3010 <s> DISLIKE </s>
-0.3010 <s> DISTANCE </s>
-0.3010 <s> DISTURBED </s>
-0.3010 <s> DIZZY </s>
-0.3010 <s> DOCK </s>
-0.3010 <s> DONKEY </s>
-0.3010 <s> DOOR </s>
-0.3010 <s> DOUBLE </s>
-0.3010 <s> DOUBT </s>
-0.3010 <s> DRAB </s>
-0.3010 <s> DRAG </s>
-0.3010 <s> DRAWER </s>
-0.3010 <s> DREAM </s>
-0.3010 <s> DREARY </s>
-0.3010 <s> DRIP </s>
-0.3010 <s> DRUM </s>
-0.3010 <s> DRUNK </s>
-0.3010 <s> DULL </s>
-0.3010 <s> DUST </s>
-0.3010 <s> DUSTY </s>
-0.3010 <s> DYSFUNCTIONAL </s>
-0.3010 <s> EARN </s>
-0.3010 <s> EARSPLITTING </s>
-0.3010 <s> EARTH </s>
-0.3010 <s> EARTHY </s>
-0.3010 <s> EASY </s>
-0.3010 <s> EATABLE </s>
-0.3010 <s> EDUCATE </s>
-0.3010 <s> EGGNOG </s>
-0.3010 <s> EIGHT </s>
-0.3010 <s> ELASTIC </s>
-0.3010 <s> ELATED </s>
-0.3010 <s> ELECTRIC </s>
-0.3010 <s> ELEGANT </s>
-0.3010 <s> ELFIN </s>
-0.3010 <s> EMINENT </s>
-0.3010 <s> EMPLOY </s>
-0.3010 <s> EMPTY </s>
-0.3010 <s> ENCHANTED </s>
-0.3010 <s> END </s>
-0.3010 <s> ENGINE </s>
-0.3010 <s> ENORMOUS </s>
-0.3010 <s> ENTER </s>
-0.3010 <s> ENVIOUS </s>
-0.3010 <s> EQUAL </s>
-0.3010 <s> ERRATIC </s>
-0.3010 <s> ERROR </s>
-0.3010 <s> ETHEREAL </s>
-0.3010 <s> EVEN </s>
-0.3010 <s> EVENT </s>
-0.3010 <s> EXCUSE </s>
-0.3010 <s> EXPAND </s>
-0.3010 <s> EXTRA-LARGE </s>
-0.3010 <s> EXTRA-SMALL </s>
-0.3010 <s> EYE </s>
-0.3010 <s> EYES </s>
-0.3010 <s> FACE </s>
-0.3010 <s> FADED </s>
-0.3010 <s> FAINT </s>
-0.3010 <s> FAIRIES </s>
-0.3010 <s> FALLACIOUS </s>
-0.3010 <s> FAMILIAR </s>
-0.3010 <s> FANATICAL </s>
-0.3010 <s> FANCY </s>
-0.3010 <s> FANG </s>
-0.3010 <s> FAR-FLUNG </s>
-0.3010 <s> FASCINATED </s>
-0.3010 <s> FAST </s>
-0.3010 <s> FASTEN </s>
-0.3010 <s> FEELING </s>
-0.3010 <s> FEIGNED </s>
-0.3010 <s> FEMALE </s>
-0.3010 <s> FESTIVE </s>
-0.3010 <s> FETCH </s>
-0.3010 <s> FIERCE </s>
-0.3010 <s> FINGER </s>
-0.3010 <s> FINICKY </s>
-0.3010 <s> FIRST </s>
-0.3010 <s> FISH </s>
-0.3010 <s> FIT </s>
-0.3010 <s> FIXED </s>
-0.3010 <s> FLAGRANT </s>
-0.3010 <s> FLAME </s>
-0.3010 <s> FLASHY </s>
-0.3010 <s> FLAT </s>
-0.3010 <s> FLAVOR </s>
-0.3010 <s> FLOOD </s>
-0.3010 <s> FLOOR </s>
-0.3010 <s> FLOW </s>
-0.3010 <s> FOAMY </s>
-0.3010 <s> FOLD </s>
-0.3010 <s> FOOD </s>
-0.3010 <s> FOOLISH </s>
-0.3010 <s> FOOT </s>
-0.3010 <s> FORGETFUL </s>
-0.3010 <s> FORK </s>
-0.3010 <s> FORM </s>
-0.3010 <s> FOUR </s>
-0.3010 <s> FOWL </s>
-0.3010 <s> FRAME </s>
-0.3010 <s> FREE </s>
-0.3010 <s> FREEZING </s>
-0.3010 <s> FREQUENT </s>
-0.3010 <s> FRIGHTENED </s>
-0.3010 <s> FROG </s>
-0.3010 <s> FRONT </s>
-0.3010 <s> FRUIT </s>
-0.3010 <s> FRY </s>
-0.3010 <s> FUMBLING </s>
-0.3010 <s> FUNNY </s>
-0.3010 <s> FURTIVE </s>
-0.3010 <s> FUTURE </s>
-0.3010 <s> FUTURISTIC </s>
-0.3010 <s> GAMY </s>
-0.3010 <s> GATE </s>
-0.3010 <s> GATHER </s>
-0.3010 <s> GAUDY </s>
-0.3010 <s> GAZE </s>
-0.3010 <s> GHOST </s>
-0.3010 <s> GIANTS </s>
-0.3010 <s> GIGANTIC </s>
-0.3010 <s> GIRL </s>
-0.3010 <s> GLASS </s>
-0.3010 <s> GLEAMING </s>
-0.3010 <s> GLISTENING </s>
-0.3010 <s> GLOVE </s>
-0.3010 <s> GLUE </s>
-0.3010 <s> GOLD </s>
-0.3010 <s> GOOFY </s>
-0.3010 <s> GRACEFUL </s>
-0.3010 <s> GRADE </s>
-0.3010 <s> GRATE </s>
-0.3010 <s> GREEN </s>
-0.3010 <s> GREY </s>
-0.3010 <s> GROAN </s>
-0.3010 <s> GROOVY </s>
-0.3010 <s> GROUND </s>
-0.3010 <s> GROUP </s>
-0.3010 <s> GRUESOME </s>
-0.3010 <s> GUARANTEE </s>
-0.3010 <s> GUIDE </s>
-0.3010 <s> GUN </s>
-0.3010 <s> HAIR </s>
-0.3010 <s> HALLOWED </s>
-0.3010 <s> HALTING </s>
-0.3010 <s> HAMMER </s>
-0.3010 <s> HAND </s>
-0.3010 <s> HANDS </s>
-0.3010 <s> HANDSOMELY </s>
-0.3010 <s> HANDY </s>
-0.3010 <s> HANG </s>
-0.3010 <s> HANGING </s>
-0.3010 <s> HAPPEN </s>
-0.3010 <s> HARASS </s>
-0.3010 <s> HARBOR </s>
-0.3010 <s> HARD </s>
-0.3010 <s> HARM </s>
-0.3010 <s> HARMONIOUS </s>
-0.3010 <s> HARSH </s>
-0.3010 <s> HAT </s>
-0.3010 <s> HATEFUL </s>
-0.3010 <s> HAUNT </s>
-0.3010 <s> HEAD </s>
-0.3010 <s> HEAL </s>
-0.3010 <s> HEALTHY </s>
-0.3010 <s> HEAP </s>
-0.3010 <s> HEARTBREAKING </s>
-0.3010 <s> HEAT </s>
-0.3010 <s> HELPFUL </s>
-0.3010 <s> HIGH </s>
-0.3010 <s> HIGH-PITCHED </s>
-0.3010 <s> HIGHFALUTIN </s>
-0.3010 <s> HILARIOUS </s>
-0.3010 <s> HILL </s>
-0.3010 <s> HOBBIES </s>
-0.3010 <s> HOLE </s>
-0.3010 <s> HOLISTIC </s>
-0.3010 <s> HOMELY </s>
-0.3010 <s> HONEY </s>
-0.3010 <s> HONORABLE </s>
-0.3010 <s> HOOK </s>
-0.3010 <s> HOPE </s>
-0.3010 <s> HORRIBLE </s>
-0.3010 <s> HORSE </s>
-0.3010 <s> HORSES </s>
-0.3010 <s> HOSPITABLE </s>
-0.3010 <s> HOUSE </s>
-0.3010 <s> HOUSES </s>
-0.3010 <s> HUMOR </s>
-0.3010 <s> HUNGRY </s>
-0.3010 <s> HURRY </s>
-0.3010 <s> HYSTERICAL </s>
-0.3010 <s> ICY </s>
-0.3010 <s> IDEA </s>
-0.3010 <s> IDENTIFY </s>
-0.3010 <s> IGNORANT </s>
-0.3010 <s> ILLUSTRIOUS </s>
-0.3010 <s> IMPOLITE </s>
-0.3010 <s> IMPORTANT </s>
-0.3010 <s> IMPROVE </s>
-0.3010 <s> IMPULSE </s>
-0.3010 <s> INCOME </s>
-0.3010 <s> INCOMPETENT </s>
-0.3010 <s> INCREDIBLE </s>
-0.3010 <s> INDUSTRIOUS </s>
-0.3010 <s> INDUSTRY </s>
-0.3010 <s> INFAMOUS </s>
-0.3010 <s> INJURE </s>
-0.3010 <s> INNATE </s>
-0.3010 <s> INSECT </s>
-0.3010 <s> INSIDIOUS </s>
-0.3010 <s> INTEND </s>
-0.3010 <s> INTERNAL </s>
-0.3010 <s> INTRODUCE </s>
-0.3010 <s> INVENTION </s>
-0.3010 <s> INVITE </s>
-0.3010 <s> IRRITATING </s>
-0.3010 <s> ITCHY </s>
-0.3010 <s> JAIL </s>
-0.3010 <s> JAR </s>
-0.3010 <s> JEALOUS </s>
-0.3010 <s> JELLYFISH </s>
-0.3010 <s> JITTERY </s>
-0.3010 <s> JOIN </s>
-0.3010 <s> JOKE </s>
-0.3010 <s> JOLLY </s>
-0.3010 <s> JUDGE </s>
-0.3010 <s> JUDICIOUS </s>
-0.3010 <s> JUMBLED </s>
-0.3010 <s> JUMP </s>
-0.3010 <s> KEEN </s>
-0.3010 <s> KETTLE </s>
-0.3010 <s> KICK </s>
-0.3010 <s> KILL </s>
-0.3010 <s> KITTY </s>
-0.3010 <s> KNIFE </s>
-0.3010 <s> KNIT </s>
-0.3010 <s> KNOT </s>
-0.3010 <s> KNOTTY </s>
-0.3010 <s> KNOWING </s>
-0.3010 <s> KNOWLEDGEABLE </s>
-0.3010 <s> LAMP </s>
-0.3010 <s> LANGUAGE </s>
-0.3010 <s> LAST </s>
-0.3010 <s> LAVISH </s>
-0.3010 <s> LEATHER </s>
-0.3010 <s> LEFT </s>
-0.3010 <s> LETTER </s>
-0.3010 <s> LEVEL </s>
-0.3010 <s> LICENSE </s>
-0.3010 <s> LIMPING </s>
-0.3010 <s> LIP </s>
-0.3010 <s> LIVELY </s>
-0.3010 <s> LOAF </s>
-0.3010 <s> LOCK </s>
-0.3010 <s> LOCKET </s>
-0.3010 <s> LONELY </s>
-0.3010 <s> LOOK </s>
-0.3010 <s> LOPSIDED </s>
-0.3010 <s> LOSS </s>
-0.3010 <s> LOUTISH </s>
-0.3010 <s> LOVE </s>
-0.3010 <s> LOVELY </s>
-0.3010 <s> LOW </s>
-0.3010 <s> LUXURIANT </s>
-0.3010 <s> LYRICAL </s>
-0.3010 <s> MADLY </s>
-0.3010 <s> MAGENTA </s>
-0.3010 <s> MAGNIFICENT </s>
-0.3010 <s> MAID </s>
-0.3010 <s> MAILBOX </s>
-0.3010 <s> MAJESTIC </s>
-0.3010 <s> MAMMOTH </s>
-0.3010 <s> MANY </s>
-0.3010 <s> MARBLE </s>
-0.3010 <s> MARK </s>
-0.3010 <s> MARKET </s>
-0.3010 <s> MARRY </s>
-0.3010 <s> MATCH </s>
-0.3010 <s> MATE </s>
-0.3010 <s> MATURE </s>
-0.3010 <s> MEASURE </s>
-0.3010 <s> MEDICAL </s>
-0.3010 <s> MELTED </s>
-0.3010 <s> MERCIFUL </s>
-0.3010 <s> MESSY </s>
-0.3010 <s> METAL </s>
-0.3010 <s> MICE </s>
-0.3010 <s> MIDDLE </s>
-0.3010 <s> MILITARY </s>
-0.3010 <s> MILK </s>
-0.3010 <s> MINE </s>
-0.3010 <s> MINION </s>
-0.3010 <s> MINISTER </s>
-0.3010 <s> MISCREANT </s>
-0.3010 <s> MOANING </s>
-0.3010 <s> MOM </s>
-0.3010 <s> MONEY </s>
-0.3010 <s> MOTHER </s>
-0.3010 <s> MOUNTAIN </s>
-0.3010 <s> MOVE </s>
-0.3010 <s> MUNDANE </s>
-0.3010 <s> MUSCLE </s>
-0.3010 <s> NAIVE </s>
-0.3010 <s> NAME </s>
-0.3010 <s> NATION </s>
-0.3010 <s> NEAT </s>
-0.3010 <s> NEBULOUS </s>
-0.3010 <s> NECESSARY </s>
-0.3010 <s> NEED </s>
-0.3010 <s> NEEDY </s>
-0.3010 <s> NEIGHBORLY </s>
-0.3010 <s> NEXT </s>
-0.3010 <s> NIGHT </s>
-0.3010 <s> NOISE </s>
-0.3010 <s> NONDESCRIPT </s>
-0.3010 <s> NONSTOP </s>
-0.3010 <s> NORMAL </s>
-0.3010 <s> NORTH </s>
-0.3010 <s> NOSE </s>
-0.3010 <s> NOSTALGIC </s>
-0.3010 <s> NOTICE </s>
-0.3010 <s> NUMBER </s>
-0.3010 <s> NUMBERLESS </s>
-0.3010 <s> NUTTY </s>
-0.3010 <s> OBEDIENT </s>
-0.3010 <s> OBNOXIOUS </s>
-0.3010 <s> OBSERVANT </s>
-0.3010 <s> OCEANIC </s>
-0.3010 <s> OFFEND </s>
-0.3010 <s> OFFER </s>
-0.3010 <s> OLD-FASHIONED </s>
-0.3010 <s> ONE </s>
-0.3010 <s> OPEN </s>
-0.3010 <s> OPTIMAL </s>
-0.3010 <s> ORANGE </s>
-0.3010 <s> ORANGES </s>
-0.3010 <s> OVAL </s>
-0.3010 <s> OVERFLOW </s>
-0.3010 <s> OVERT </s>
-0.3010 <s> OWE </s>
-0.3010 <s> OWN </s>
-0.3010 <s> PACK </s>
-0.3010 <s> PAGE </s>
-0.3010 <s> PAINFUL </s>
-0.3010 <s> PAINSTAKING </s>
-0.3010 <s> PALE </s>
-0.3010 <s> PANCAKE </s>
-0.3010 <s> PANORAMIC </s>
-0.3010 <s> PARALLEL </s>
-0.3010 <s> PARK </s>
-0.3010 <s> PART </s>
-0.3010 <s> PARTNER </s>
-0.3010 <s> PASS </s>
-0.3010 <s> PAST </s>
-0.3010 <s> PEACE </s>
-0.3010 <s> PEACEFUL </s>
-0.3010 <s> PEDAL </s>
-0.3010 <s> PERFECT </s>
-0.3010 <s> PERIODIC </s>
-0.3010 <s> PERSON </s>
-0.3010 <s> PEST </s>
-0.3010 <s> PET </s>
-0.3010 <s> PETITE </s>
-0.3010 <s> PETS </s>
-0.3010 <s> PHONE </s>
-0.3010 <s> PHYSICAL </s>
-0.3010 <s> PIE </s>
-0.3010 <s> PIG </s>
-0.3010 <s> PINE </s>
-0.3010 <s> PIZZAS </s>
-0.3010 <s> PLAN </s>
-0.3010 <s> PLANT </s>
-0.3010 <s> PLANTS </s>
-0.3010 <s> PLAUSIBLE </s>
-0.3010 <s> PLAYGROUND </s>
-0.3010 <s> PLOT </s>
-0.3010 <s> POCKET </s>
-0.3010 <s> POINT </s>
-0.3010 <s> POISED </s>
-0.3010 <s> POPCORN </s>
-0.3010 <s> POSITION </s>
-0.3010 <s> POST </s>
-0.3010 <s> POT </s>
-0.3010 <s> POUR </s>
-0.3010 <s> POWDER </s>
-0.3010 <s> PRECEDE </s>
-0.3010 <s> PREPARE </s>
-0.3010 <s> PRESENT </s>
-0.3010 <s> PRESERVE </s>
-0.3010 <s> PRETEND </s>
-0.3010 <s> PREVENT </s>
-0.3010 <s> PRODUCE </s>
-0.3010 <s> PROGRAM </s>
-0.3010 <s> PROPERTY </s>
-0.3010 <s> PROTECT </s>
-0.3010 <s> PUBLIC </s>
-0.3010 <s> PUNCH </s>
-0.3010 <s> PUNCTURE </s>
-0.3010 <s> PUNISH </s>
-0.3010 <s> PUNISHMENT </s>
-0.3010 <s> PUNY </s>
-0.3010 <s> PUSH </s>
-0.3010 <s> PUSHY </s>
-0.3010 <s> PUZZLED </s>
-0.3010 <s> PUZZLING </s>
-0.3010 <s> QUACK </s>
-0.3010 <s> QUAINT </s>
-0.3010 <s> QUARRELSOME </s>
-0.3010 <s> QUARTER </s>
-0.3010 <s> QUARTZ </s>
-0.3010 <s> QUEEN </s>
-0.3010 <s> QUEUE </s>
-0.3010 <s> QUICKEST </s>
-0.3010 <s> QUILT </s>
-0.3010 <s> QUINCE </s>
-0.3010 <s> QUIXOTIC </s>
-0.3010 <s> QUIZZICAL </s>
-0.3010 <s> RADIATE </s>
-0.3010 <s> RAILWAY </s>
-0.3010 <s> RAIN </s>
-0.3010 <s> RAISE </s>
-0.3010 <s> RAMBUNCTIOUS </s>
-0.3010 <s> RAMPANT </s>
-0.3010 <s> RARE </s>
-0.3010 <s> RASPY </s>
-0.3010 <s> RAT </s>
-0.3010 <s> RATTY </s>
-0.3010 <s> REAL </s>
-0.3010 <s> RECEIVE </s>
-0.3010 <s> RECEPTIVE </s>
-0.3010 <s> RECESS </s>
-0.3010 <s> RECONDITE </s>
-0.3010 <s> RECORD </s>
-0.3010 <s> REDUNDANT </s>
-0.3010 <s> REFLECTIVE </s>
-0.3010 <s> REGULAR </s>
-0.3010 <s> RELAX </s>
-0.3010 <s> RELEASE </s>
-0.3010 <s> RELIEVED </s>
-0.3010 <s> RELY </s>
-0.3010 <s> REMARKABLE </s>
-0.3010 <s> REMOVE </s>
-0.3010 <s> REPEAT </s>
-0.3010 <s> REPRESENTATIVE </s>
-0.3010 <s> REPRODUCE </s>
-0.3010 <s> REQUEST </s>
-0.3010 <s> RESCUE </s>
-0.3010 <s> RESPONSIBLE </s>
-0.3010 <s> REST </s>
-0.3010 <s> RETIRE </s>
-0.3010 <s> RICE </s>
-0.3010 <s> RIFLE </s>
-0.3010 <s> RINGS </s>
-0.3010 <s> RIPE </s>
-0.3010 <s> RITZY </s>
-0.3010 <s> ROASTED </s>
-0.3010 <s> ROB </s>
-0.3010 <s> ROCK </s>
-0.3010 <s> ROLL </s>
-0.3010 <s> ROMANTIC </s>
-0.3010 <s> ROSE </s>
-0.3010 <s> ROT </s>
-0.3010 <s> ROYAL </s>
-0.3010 <s> RUDE </s>
-0.3010 <s> RULE </s>
-0.3010 <s> SALTY </s>
-0.3010 <s> SAME </s>
-0.3010 <s> SAND </s>
-0.3010 <s> SATISFY </s>
-0.3010 <s> SATISFYING </s>
-0.3010 <s> SAVE </s>
-0.3010 <s> SAW </s>
-0.3010 <s> SCARCE </s>
-0.3010 <s> SCARECROW </s>
-0.3010 <s> SCARED </s>
-0.3010 <s> SCARF </s>
-0.3010 <s> SCENT </s>
-0.3010 <s> SCIENTIFIC </s>
-0.3010 <s> SCISSORS </s>
-0.3010 <s> SCREECHING </s>
-0.3010 <s> SCRUB </s>
-0.3010 <s> SEASHORE </s>
-0.3010 <s> SEED </s>
-0.3010 <s> SELECTIVE </s>
-0.3010 <s> SELFISH </s>
-0.3010 <s> SEPARATE </s>
-0.3010 <s> SETTLE </s>
-0.3010 <s> SHALLOW </s>
-0.3010 <s> SHARP </s>
-0.3010 <s> SHEET </s>
-0.3010 <s> SHELF </s>
-0.3010 <s> SHELTER </s>
-0.3010 <s> SHIRT </s>
-0.3010 <s> SHIVER </s>
-0.3010 <s> SHOCK </s>
-0.3010 <s> SHOP </s>
-0.3010 <s> SHOW </s>
-0.3010 <s> SHY </s>
-0.3010 <s> SIGN </s>
-0.3010 <s> SILENT </s>
-0.3010 <s> SINK </s>
-0.3010 <s> SKATE </s>
-0.3010 <s> SKI </s>
-0.3010 <s> SKIP </s>
-0.3010 <s> SLEEP </s>
-0.3010 <s> SLEET </s>
-0.3010 <s> SLIM </s>
-0.3010 <s> SLOPPY </s>
-0.3010 <s> SLOW </s>
-0.3010 <s> SMALL </s>
-0.3010 <s> SMASH </s>
-0.3010 <s> SMILE </s>
-0.3010 <s> SMILING </s>
-0.3010 <s> SMOGGY </s>
-0.3010 <s> SMOKE </s>
-0.3010 <s> SNAKE </s>
-0.3010 <s> SNAKES </s>
-0.3010 <s> SNATCH </s>
-0.3010 <s> SNEEZE </s>
-0.3010 <s> SNOBBISH </s>
-0.3010 <s> SNOW </s>
-0.3010 <s> SOCIETY </s>
-0.3010 <s> SODA </s>
-0.3010 <s> SOFA </s>
-0.3010 <s> SOMBER </s>
-0.3010 <s> SON </s>
-0.3010 <s> SONGS </s>
-0.3010 <s> SOOTHE </s>
-0.3010 <s> SORE </s>
-0.3010 <s> SORT </s>
-0.3010 <s> SOUND </s>
-0.3010 <s> SPADE </s>
-0.3010 <s> SPARE </s>
-0.3010 <s> SPARK </s>
-0.3010 <s> SPARKLING </s>
-0.3010 <s> SPECTACULAR </s>
-0.3010 <s> SPIFFY </s>
-0.3010 <s> SPIRITUAL </s>
-0.3010 <s> SPITEFUL </s>
-0.3010 <s> SPLENDID </s>
-0.3010 <s> SPONGE </s>
-0.3010 <s> SPOON </s>
-0.3010 <s> SPOT </s>
-0.3010 <s> SPOTTED </s>
-0.3010 <s> SPRAY </s>
-0.3010 <s> SPROUT </s>
-0.3010 <s> SPY </s>
-0.3010 <s> SQUARE </s>
-0.3010 <s> SQUASH </s>
-0.3010 <s> SQUEAL </s>
-0.3010 <s> STAGE </s>
-0.3010 <s> STAIN </s>
-0.3010 <s> STAKING </s>
-0.3010 <s> STALE </s>
-0.3010 <s> STAMP </s>
-0.3010 <s> STANDING </s>
-0.3010 <s> STARE </s>
-0.3010 <s> START </s>
-0.3010 <s> STATION </s>
-0.3010 <s> STEADFAST </s>
-0.3010 <s> STEAM </s>
-0.3010 <s> STEEP </s>
-0.3010 <s> STEW </s>
-0.3010 <s> STICK </s>
-0.3010 <s> STIFF </s>
-0.3010 <s> STIMULATING </s>
-0.3010 <s> STIR </s>
-0.3010 <s> STITCH </s>
-0.3010 <s> STOMACH </s>
-0.3010 <s> STOP </s>
-0.3010 <s> STORE </s>
-0.3010 <s> STOVE </s>
-0.3010 <s> STRAIGHT </s>
-0.3010 <s> STRANGE </s>
-0.3010 <s> STRAP </s>
-0.3010 <s> STRAW </s>
-0.3010 <s> STRING </s>
-0.3010 <s> STROKE </s>
-0.3010 <s> STUFF </s>
-0.3010 <s> STUPENDOUS </s>
-0.3010 <s> SUBDUED </s>
-0.3010 <s> SUBSEQUENT </s>
-0.3010 <s> SUBSTANCE </s>
-0.3010 <s> SUBSTANTIAL </s>
-0.3010 <s> SUGAR </s>
-0.3010 <s> SUGGEST </s>
-0.3010 <s> SUGGESTION </s>
-0.3010 <s> SUIT </s>
-0.3010 <s> SULKY </s>
-0.3010 <s> SUPER </s>
-0.3010 <s> SUPERB </s>
-0.3010 <s> SUPPORT </s>
-0.3010 <s> SUSPEND </s>
-0.3010 <s> SWEATER </s>
-0.3010 <s> SWELTERING </s>
-0.3010 <s> SWIFT </s>
-0.3010 <s> SWIM </s>
-0.3010 <s> SYNONYMOUS </s>
-0.3010 <s> TACIT </s>
-0.3010 <s> TAIL </s>
-0.3010 <s> TALK </s>
-0.3010 <s> TAN </s>
-0.3010 <s> TAP </s>
-0.3010 <s> TART </s>
-0.3010 <s> TASTEFUL </s>
-0.3010 <s> TASTY </s>
-0.3010 <s> TEAM </s>
-0.3010 <s> TEETH </s>
-0.3010 <s> TELLING </s>
-0.3010 <s> TEMPORARY </s>
-0.3010 <s> TEMPT </s>
-0.3010 <s> TENDENCY </s>
-0.3010 <s> TENT </s>
-0.3010 <s> TERRIBLE </s>
-0.3010 <s> TERRIFIC </s>
-0.3010 <s> TEST </s>
-0.3010 <s> TEXTURE </s>
-0.3010 <s> THEORY </s>
-0.3010 <s> THERAPEUTIC </s>
-0.3010 <s> THIRSTY </s>
-0.3010 <s> THOUGHT </s>
-0.3010 <s> THRILL </s>
-0.3010 <s> THRONE </s>
-0.3010 <s> TICKET </s>
-0.3010 <s> TIE </s>
-0.3010 <s> TIME </s>
-0.3010 <s> TOE </s>
-0.3010 <s> TOES </s>
-0.3010 <s> TOOTHBRUSH </s>
-0.3010 <s> TOOTHPASTE </s>
-0.3010 <s> TOP </s>
-0.3010 <s> TOUGH </s>
-0.3010 <s> TOUR </s>
-0.3010 <s> TOWN </s>
-0.3010 <s> TRACE </s>
-0.3010 <s> TRAIN </s>
-0.3010 <s> TRANQUIL </s>
-0.3010 <s> TRANSPORT </s>
-0.3010 <s> TREES </s>
-0.3010 <s> TREMBLE </s>
-0.3010 <s> TROUSERS </s>
-0.3010 <s> TUG </s>
-0.3010 <s> TURKEY </s>
-0.3010 <s> TURN </s>
-0.3010 <s> TWO </s>
-0.3010 <s> TYPICAL </s>
-0.3010 <s> UNADVISED </s>
-0.3010 <s> UNBIASED </s>
-0.3010 <s> UNCLE </s>
-0.3010 <s> UNCOVERED </s>
-0.3010 <s> UNDERSTOOD </s>
-0.3010 <s> UNEVEN </s>
-0.3010 <s> UNHEALTHY </s>
-0.3010 <s> UNIT </s>
-0.3010 <s> UNITE </s>
-0.3010 <s> UNKNOWN </s>
-0.3010 <s> UNNATURAL </s>
-0.3010 <s> UNTIDY </s>
-0.3010 <s> UPPITY </s>
-0.3010 <s> UPSET </s>
-0.3010 <s> USE </s>
-0.3010 <s> UTOPIAN </s>
-0.3010 <s> UTTER </s>
-0.3010 <s> UTTERMOST </s>
-0.3010 <s> VAGABOND </s>
-0.3010 <s> VAN </s>
-0.3010 <s> VANISH </s>
-0.3010 <s> VAST </s>
-0.3010 <s> VEIL </s>
-0.3010 <s> VENGEFUL </s>
-0.3010 <s> VERDANT </s>
-0.3010 <s> VIGOROUS </s>
-0.3010 <s> VISITOR </s>
-0.3010 <s> VIVACIOUS </s>
-0.3010 <s> WACKY </s>
-0.3010 <s> WAIL </s>
-0.3010 <s> WAIT </s>
-0.3010 <s> WALL </s>
-0.3010 <s> WANDERING </s>
-0.3010 <s> WANT </s>
-0.3010 <s> WANTING </s>
-0.3010 <s> WARY </s>
-0.3010 <s> WASH </s>
-0.3010 <s> WASTE </s>
-0.3010 <s> WASTEFUL </s>
-0.3010 <s> WAY </s>
-0.3010 <s> WEAK </s>
-0.3010 <s> WEATHER </s>
-0.3010 <s> WEIGH </s>
-0.3010 <s> WEIGHT </s>
-0.3010 <s> WHEEL </s>
-0.3010 <s> WHIP </s>
-0.3010 <s> WHIRL </s>
-0.3010 <s> WHISPER </s>
-0.3010 <s> WHISPERING </s>
-0.3010 <s> WHITE </s>
-0.3010 <s> WIGGLY </s>
-0.3010 <s> WIND </s>
-0.3010 <s> WINDOW </s>
-0.3010 <s> WING </s>
-0.3010 <s> WIPE </s>
-0.3010 <s> WIRE </s>
-0.3010 <s> WISH </s>
-0.3010 <s> WITTY </s>
-0.3010 <s> WOEBEGONE </s>
-0.3010 <s> WOMAN </s>
-0.3010 <s> WONDER </s>
-0.3010 <s> WONDERFUL </s>
-0.3010 <s> WOOL </s>
-0.3010 <s> WOOZY </s>
-0.3010 <s> WORD </s>
-0.3010 <s> WORM </s>
-0.3010 <s> WORRY </s>
-0.3010 <s> WORTHLESS </s>
-0.3010 <s> WRECK </s>
-0.3010 <s> WRENCH </s>
-0.3010 <s> WRESTLE </s>
-0.3010 <s> WRETCHED </s>
-0.3010 <s> WRITING </s>
-0.3010 <s> WRY </s>
-0.3010 <s> YAM </s>
-0.3010 <s> YARD </s>
-0.3010 <s> YELLOW </s>
-0.3010 <s> YOUNG </s>
-0.3010 <s> ZEBRA </s>
-0.3010 <s> ZIPPER </s>
-0.3010 <s> ZIPPY </s>
-0.3010 <s> ZOOM </s>

\end\
